{"learner":{"attributes":{"best_iteration":"96","best_ntree_limit":"97","best_score":"10.384934934563175","scikit_learn":"{\"n_estimators\": 100, \"objective\": \"reg:squarederror\", \"max_depth\": 2, \"max_leaves\": 0, \"max_bin\": null, \"grow_policy\": null, \"learning_rate\": 0.1, \"verbosity\": null, \"booster\": null, \"tree_method\": null, \"gamma\": 0.5, \"min_child_weight\": null, \"max_delta_step\": null, \"subsample\": null, \"sampling_method\": null, \"colsample_bytree\": null, \"colsample_bylevel\": null, \"colsample_bynode\": null, \"reg_alpha\": null, \"reg_lambda\": 10, \"scale_pos_weight\": 1, \"base_score\": null, \"missing\": NaN, \"num_parallel_tree\": null, \"random_state\": null, \"n_jobs\": null, \"monotone_constraints\": null, \"interaction_constraints\": null, \"importance_type\": null, \"gpu_id\": null, \"validate_parameters\": null, \"predictor\": null, \"enable_categorical\": false, \"feature_types\": null, \"max_cat_to_onehot\": null, \"max_cat_threshold\": null, \"eval_metric\": null, \"early_stopping_rounds\": 20, \"callbacks\": null, \"evals_result_\": {\"validation_0\": {\"rmse\": [29.55956619629774, 27.432162925366946, 25.546193766820437, 23.83806201537315, 22.330310548727425, 21.031847554817144, 19.85786639671985, 18.78845737986478, 17.83976134353137, 17.02562037914072, 16.267683389016607, 15.649201427926432, 15.095342483337863, 14.560530013931198, 14.133001685338128, 13.749721706600857, 13.418136189540151, 13.092536359464567, 12.891881874680648, 12.630912642215515, 12.38825576514243, 12.261520240261461, 12.069307688762319, 11.919617797392458, 11.80100036999767, 11.644659262560646, 11.55021702968243, 11.451850379002797, 11.336154809085581, 11.263691349582736, 11.193170243999568, 11.152827502609982, 11.101290585933437, 11.05235120702549, 10.998059089834152, 10.955199438614338, 10.903489402182757, 10.898347686902493, 10.869266946685116, 10.84201244345915, 10.792896468955458, 10.767044940456477, 10.742178080030659, 10.723851382799255, 10.723223225715135, 10.692378011705795, 10.67479385704212, 10.64250225598417, 10.63985503019447, 10.626550264946431, 10.601960061512376, 10.582518691468623, 10.574592477366785, 10.55825654859655, 10.567621632974541, 10.556599292245227, 10.55846228459531, 10.550561443094512, 10.526085232351432, 10.513758085828085, 10.500320501497157, 10.501298810345515, 10.499469868016316, 10.48706833439222, 10.483713099980134, 10.4741251821744, 10.472264058408802, 10.477155483137693, 10.473226503247894, 10.478381228394833, 10.47985824402495, 10.467998671999384, 10.469215277540322, 10.470737550842944, 10.461192631908695, 10.462020224647889, 10.45175904689531, 10.448472750651849, 10.439125591938243, 10.439156864696791, 10.440427134788468, 10.432805007025564, 10.432876324221056, 10.42685550280215, 10.416071788911205, 10.416057361325432, 10.409219788930116, 10.410333662167757, 10.413531835810842, 10.404303928820482, 10.396792180099808, 10.399960554031184, 10.39408931677045, 10.393834165730201, 10.38771511822514, 10.390896135949417, 10.384934934563175, 10.387970990545174, 10.39096463457559, 10.393961184403475]}}, \"_estimator_type\": \"regressor\"}"},"feature_names":[],"feature_types":[],"gradient_booster":{"model":{"gbtree_model_param":{"num_parallel_tree":"1","num_trees":"100","size_leaf_vector":"0"},"tree_info":[0,0,0,0,0,0,0,0,0,0,0,0,0,0,0,0,0,0,0,0,0,0,0,0,0,0,0,0,0,0,0,0,0,0,0,0,0,0,0,0,0,0,0,0,0,0,0,0,0,0,0,0,0,0,0,0,0,0,0,0,0,0,0,0,0,0,0,0,0,0,0,0,0,0,0,0,0,0,0,0,0,0,0,0,0,0,0,0,0,0,0,0,0,0,0,0,0,0,0,0],"trees":[{"base_weights":[1.8221626E1,9.468852E0,6.0903107E1,3.7455401E0,2.3327812E1,3.7512512E1,7.2154434E1],"categories":[],"categories_nodes":[],"categories_segments":[],"categories_sizes":[],"default_left":[1,1,1,0,0,0,0],"id":0,"left_children":[1,3,5,-1,-1,-1,-1],"loss_changes":[2.9683403E5,5.3380547E4,8.724875E3,0E0,0E0,0E0,0E0],"parents":[2147483647,0,0,1,1,2,2],"right_children":[2,4,6,-1,-1,-1,-1],"split_conditions":[1.6753288E1,9.90341E0,2.1489063E1,3.74554E-1,2.3327813E0,3.7512512E0,7.2154436E0],"split_indices":[3,3,3,0,0,0,0],"split_type":[0,0,0,0,0,0,0],"sum_hessian":[8E2,6.74E2,1.26E2,4.86E2,1.88E2,5.5E1,7.1E1],"tree_param":{"num_deleted":"0","num_feature":"4","num_nodes":"7","size_leaf_vector":"0"}},{"base_weights":[1.656828E1,8.561547E0,5.5619167E1,3.3785377E0,2.1112848E1,3.4338375E1,6.582978E1],"categories":[],"categories_nodes":[],"categories_segments":[],"categories_sizes":[],"default_left":[1,1,1,0,0,0,0],"id":1,"left_children":[1,3,5,-1,-1,-1,-1],"loss_changes":[2.4850081E5,4.37833E4,6.9465625E3,0E0,0E0,0E0,0E0],"parents":[2147483647,0,0,1,1,2,2],"right_children":[2,4,6,-1,-1,-1,-1],"split_conditions":[1.6753288E1,9.90341E0,2.1489063E1,3.3785376E-1,2.111285E0,3.4338377E0,6.5829782E0],"split_indices":[3,3,3,0,0,0,0],"split_type":[0,0,0,0,0,0,0],"sum_hessian":[8E2,6.74E2,1.26E2,4.86E2,1.88E2,5.5E1,7.1E1],"tree_param":{"num_deleted":"0","num_feature":"4","num_nodes":"7","size_leaf_vector":"0"}},{"base_weights":[1.50653515E1,7.741199E0,5.079378E1,2.7193737E0,1.8423222E1,3.1432821E1,6.0059517E1],"categories":[],"categories_nodes":[],"categories_segments":[],"categories_sizes":[],"default_left":[1,1,1,0,0,0,0],"id":2,"left_children":[1,3,5,-1,-1,-1,-1],"loss_changes":[2.0802912E5,3.619099E4,5.5190938E3,0E0,0E0,0E0,0E0],"parents":[2147483647,0,0,1,1,2,2],"right_children":[2,4,6,-1,-1,-1,-1],"split_conditions":[1.6753288E1,9.58436E0,2.1489063E1,2.7193737E-1,1.8423222E0,3.1432822E0,6.005952E0],"split_indices":[3,3,3,0,0,0,0],"split_type":[0,0,0,0,0,0,0],"sum_hessian":[8E2,6.74E2,1.26E2,4.67E2,2.07E2,5.5E1,7.1E1],"tree_param":{"num_deleted":"0","num_feature":"4","num_nodes":"7","size_leaf_vector":"0"}},{"base_weights":[1.3697871E1,5.5979185E0,4.0759987E1,1.5062499E0,1.2314396E1,2.7435541E1,5.5165504E1],"categories":[],"categories_nodes":[],"categories_segments":[],"categories_sizes":[],"default_left":[1,1,1,0,0,0,0],"id":3,"left_children":[1,3,5,-1,-1,-1,-1],"loss_changes":[1.7527183E5,1.726533E4,2.0374969E4,0E0,0E0,0E0,0E0],"parents":[2147483647,0,0,1,1,2,2],"right_children":[2,4,6,-1,-1,-1,-1],"split_conditions":[1.4874733E1,7.9732294E0,2.1717556E1,1.5062499E-1,1.2314396E0,2.743554E0,5.5165505E0],"split_indices":[3,3,3,0,0,0,0],"split_type":[0,0,0,0,0,0,0],"sum_hessian":[8E2,6.25E2,1.75E2,3.96E2,2.29E2,1.06E2,6.9E1],"tree_param":{"num_deleted":"0","num_feature":"4","num_nodes":"7","size_leaf_vector":"0"}},{"base_weights":[1.2447124E1,6.3019643E0,4.243843E1,1.6606325E1,2.4884264E0,2.7589306E1,5.1474075E1],"categories":[],"categories_nodes":[],"categories_segments":[],"categories_sizes":[],"default_left":[1,1,1,0,0,0,0],"id":4,"left_children":[1,3,5,-1,-1,-1,-1],"loss_changes":[1.4660967E5,2.6465275E4,4.0459688E3,0E0,0E0,0E0,0E0],"parents":[2147483647,0,0,1,1,2,2],"right_children":[2,4,6,-1,-1,-1,-1],"split_conditions":[1.6753288E1,9.5E0,2.2375366E1,1.6606325E0,2.4884264E-1,2.7589307E0,5.1474075E0],"split_indices":[3,0,3,0,0,0,0],"split_type":[0,0,0,0,0,0,0],"sum_hessian":[8E2,6.74E2,1.26E2,1.73E2,5.01E2,6.3E1,6.3E1],"tree_param":{"num_deleted":"0","num_feature":"4","num_nodes":"7","size_leaf_vector":"0"}},{"base_weights":[1.1323594E1,4.534833E0,3.4013474E1,1.8064572E0,1.201154E1,2.3938927E1,4.8183727E1],"categories":[],"categories_nodes":[],"categories_segments":[],"categories_sizes":[],"default_left":[1,1,1,0,0,0,0],"id":5,"left_children":[1,3,5,-1,-1,-1,-1],"loss_changes":[1.2322684E5,1.2736552E4,1.4875734E4,0E0,0E0,0E0,0E0],"parents":[2147483647,0,0,1,1,2,2],"right_children":[2,4,6,-1,-1,-1,-1],"split_conditions":[1.4874733E1,9.58436E0,5.548094E1,1.8064572E-1,1.2011541E0,2.3938928E0,4.8183727E0],"split_indices":[3,3,2,0,0,0,0],"split_type":[0,0,0,0,0,0,0],"sum_hessian":[8E2,6.25E2,1.75E2,4.67E2,1.58E2,1.18E2,5.7E1],"tree_param":{"num_deleted":"0","num_feature":"4","num_nodes":"7","size_leaf_vector":"0"}},{"base_weights":[1.0297335E1,5.1273966E0,3.5541924E1,1.3773039E1,1.9308672E0,2.3797964E1,4.4084515E1],"categories":[],"categories_nodes":[],"categories_segments":[],"categories_sizes":[],"default_left":[1,1,1,0,0,0,0],"id":6,"left_children":[1,3,5,-1,-1,-1,-1],"loss_changes":[1.03893125E5,1.863712E4,3.1528281E3,0E0,0E0,0E0,0E0],"parents":[2147483647,0,0,1,1,2,2],"right_children":[2,4,6,-1,-1,-1,-1],"split_conditions":[1.6753288E1,9.5E0,5.548094E1,1.377304E0,1.9308673E-1,2.3797965E0,4.4084516E0],"split_indices":[3,0,2,0,0,0,0],"split_type":[0,0,0,0,0,0,0],"sum_hessian":[8E2,6.74E2,1.26E2,1.73E2,5.01E2,6.9E1,5.7E1],"tree_param":{"num_deleted":"0","num_feature":"4","num_nodes":"7","size_leaf_vector":"0"}},{"base_weights":[9.370794E0,4.317825E0,3.1137207E1,1.5291783E0,1.1640178E1,2.0188429E1,3.928555E1],"categories":[],"categories_nodes":[],"categories_segments":[],"categories_sizes":[],"default_left":[1,1,1,0,0,0,0],"id":7,"left_children":[1,3,5,-1,-1,-1,-1],"loss_changes":[8.7743414E4,1.3482615E4,5.5402344E3,0E0,0E0,0E0,0E0],"parents":[2147483647,0,0,1,1,2,2],"right_children":[2,4,6,-1,-1,-1,-1],"split_conditions":[4.0138546E1,9.90341E0,2.1939693E1,1.5291783E-1,1.1640178E0,2.018843E0,3.928555E0],"split_indices":[2,3,3,0,0,0,0],"split_type":[0,0,0,0,0,0,0],"sum_hessian":[8E2,6.59E2,1.41E2,4.86E2,1.73E2,7.5E1,6.6E1],"tree_param":{"num_deleted":"0","num_feature":"4","num_nodes":"7","size_leaf_vector":"0"}},{"base_weights":[8.523397E0,4.1777854E0,2.9752552E1,1.3054248E1,1.8994945E0,1.9631283E1,3.6986866E1],"categories":[],"categories_nodes":[],"categories_segments":[],"categories_sizes":[],"default_left":[1,1,1,0,0,0,0],"id":8,"left_children":[1,3,5,-1,-1,-1,-1],"loss_changes":[7.348248E4,1.358468E4,2.6969844E3,0E0,0E0,0E0,0E0],"parents":[2147483647,0,0,1,1,2,2],"right_children":[2,4,6,-1,-1,-1,-1],"split_conditions":[1.6753288E1,4.5E0,2.2899086E1,1.3054248E0,1.8994945E-1,1.9631283E0,3.6986866E0],"split_indices":[3,0,3,0,0,0,0],"split_type":[0,0,0,0,0,0,0],"sum_hessian":[8E2,6.74E2,1.26E2,1.28E2,5.46E2,6.8E1,5.8E1],"tree_param":{"num_deleted":"0","num_feature":"4","num_nodes":"7","size_leaf_vector":"0"}},{"base_weights":[7.7594185E0,3.505366E0,2.6092974E1,8.278933E0,3.267354E-1,1.766051E1,3.402912E1],"categories":[],"categories_nodes":[],"categories_segments":[],"categories_sizes":[],"default_left":[1,1,1,0,0,0,0],"id":9,"left_children":[1,3,5,-1,-1,-1,-1],"loss_changes":[6.2258785E4,1.0123958E4,4.0954062E3,0E0,0E0,0E0,0E0],"parents":[2147483647,0,0,1,1,2,2],"right_children":[2,4,6,-1,-1,-1,-1],"split_conditions":[4.0138546E1,1.95E1,5.548094E1,8.2789326E-1,3.267354E-2,1.7660509E0,3.4029121E0],"split_indices":[2,0,2,0,0,0,0],"split_type":[0,0,0,0,0,0,0],"sum_hessian":[8E2,6.59E2,1.41E2,2.57E2,4.02E2,8.4E1,5.7E1],"tree_param":{"num_deleted":"0","num_feature":"4","num_nodes":"7","size_leaf_vector":"0"}},{"base_weights":[7.057915E0,1.9073483E1,1.6335101E0,1.3848558E1,3.1098122E1,6.047379E-1,7.584545E0],"categories":[],"categories_nodes":[],"categories_segments":[],"categories_sizes":[],"default_left":[1,1,1,0,0,0,0],"id":10,"left_children":[1,3,5,-1,-1,-1,-1],"loss_changes":[5.248205E4,1.1463133E4,3.437699E3,0E0,0E0,0E0,0E0],"parents":[2147483647,0,0,1,1,2,2],"right_children":[2,4,6,-1,-1,-1,-1],"split_conditions":[3.5E0,2.2899086E1,2.4703636E1,1.3848559E0,3.1098123E0,6.047379E-2,7.584545E-1],"split_indices":[0,3,2,0,0,0,0],"split_type":[0,0,0,0,0,0,0],"sum_hessian":[8E2,2.41E2,5.59E2,1.83E2,5.8E1,4.86E2,7.3E1],"tree_param":{"num_deleted":"0","num_feature":"4","num_nodes":"7","size_leaf_vector":"0"}},{"base_weights":[6.4177237E0,2.8246331E0,2.1911764E1,-2.0722581E-1,6.4716754E0,5.8600397E0,2.391508E1],"categories":[],"categories_nodes":[],"categories_segments":[],"categories_sizes":[],"default_left":[1,1,1,0,0,0,0],"id":11,"left_children":[1,3,5,-1,-1,-1,-1],"loss_changes":[4.4474973E4,7.4107563E3,3.4542266E3,0E0,0E0,0E0,0E0],"parents":[2147483647,0,0,1,1,2,2],"right_children":[2,4,6,-1,-1,-1,-1],"split_conditions":[4.0138546E1,7.1286535E0,1.05E1,-2.0722581E-2,6.4716756E-1,5.8600396E-1,2.3915079E0],"split_indices":[2,3,1,0,0,0,0],"split_type":[0,0,0,0,0,0,0],"sum_hessian":[8E2,6.59E2,1.41E2,3.65E2,2.94E2,2E1,1.21E2],"tree_param":{"num_deleted":"0","num_feature":"4","num_nodes":"7","size_leaf_vector":"0"}},{"base_weights":[5.8204446E0,2.7069929E0,2.1051302E1,8.74078E-1,8.373915E0,1.3536512E1,2.677004E1],"categories":[],"categories_nodes":[],"categories_segments":[],"categories_sizes":[],"default_left":[1,1,1,0,0,0,0],"id":12,"left_children":[1,3,5,-1,-1,-1,-1],"loss_changes":[3.784079E4,7.031504E3,2.220879E3,0E0,0E0,0E0,0E0],"parents":[2147483647,0,0,1,1,2,2],"right_children":[2,4,6,-1,-1,-1,-1],"split_conditions":[1.6753288E1,1.0708662E1,5.548094E1,8.74078E-2,8.373915E-1,1.3536513E0,2.677004E0],"split_indices":[3,3,2,0,0,0,0],"split_type":[0,0,0,0,0,0,0],"sum_hessian":[8E2,6.74E2,1.26E2,5.18E2,1.56E2,6.9E1,5.7E1],"tree_param":{"num_deleted":"0","num_feature":"4","num_nodes":"7","size_leaf_vector":"0"}},{"base_weights":[5.2995787E0,1.4661928E1,1.0764756E0,1.0446151E1,2.447113E1,-1.4622731E0,2.7067862E0],"categories":[],"categories_nodes":[],"categories_segments":[],"categories_sizes":[],"default_left":[1,1,1,0,0,0,0],"id":13,"left_children":[1,3,5,-1,-1,-1,-1],"loss_changes":[3.1868082E4,7.823414E3,2.3946426E3,0E0,0E0,0E0,0E0],"parents":[2147483647,0,0,1,1,2,2],"right_children":[2,4,6,-1,-1,-1,-1],"split_conditions":[3.5E0,2.2899086E1,2.5970833E0,1.0446151E0,2.447113E0,-1.4622732E-1,2.706786E-1],"split_indices":[0,3,3,0,0,0,0],"split_type":[0,0,0,0,0,0,0],"sum_hessian":[8E2,2.41E2,5.59E2,1.83E2,5.8E1,2.19E2,3.4E2],"tree_param":{"num_deleted":"0","num_feature":"4","num_nodes":"7","size_leaf_vector":"0"}},{"base_weights":[4.814265E0,2.1853235E0,1.7682304E1,4.636728E0,-7.480472E-1,5.0074964E0,1.9435936E1],"categories":[],"categories_nodes":[],"categories_segments":[],"categories_sizes":[],"default_left":[1,1,1,0,0,0,0],"id":14,"left_children":[1,3,5,-1,-1,-1,-1],"loss_changes":[2.7015332E4,4.9532446E3,2.0496133E3,0E0,0E0,0E0,0E0],"parents":[2147483647,0,0,1,1,2,2],"right_children":[2,4,6,-1,-1,-1,-1],"split_conditions":[1.6753288E1,3.15E1,1.05E1,4.636728E-1,-7.4804716E-2,5.0074965E-1,1.9435936E0],"split_indices":[3,0,1,0,0,0,0],"split_type":[0,0,0,0,0,0,0],"sum_hessian":[8E2,6.74E2,1.26E2,3.64E2,3.1E2,2E1,1.06E2],"tree_param":{"num_deleted":"0","num_feature":"4","num_nodes":"7","size_leaf_vector":"0"}},{"base_weights":[4.3678164E0,2.0921576E0,1.7029552E1,7.1402893E0,6.157904E-1,3.9391484E0,1.8916435E1],"categories":[],"categories_nodes":[],"categories_segments":[],"categories_sizes":[],"default_left":[1,1,1,0,0,0,0],"id":15,"left_children":[1,3,5,-1,-1,-1,-1],"loss_changes":[2.2982887E4,5.1581523E3,2.2682578E3,0E0,0E0,0E0,0E0],"parents":[2147483647,0,0,1,1,2,2],"right_children":[2,4,6,-1,-1,-1,-1],"split_conditions":[4.3772385E1,4.5E0,1.05E1,7.1402895E-1,6.1579045E-2,3.9391485E-1,1.8916435E0],"split_indices":[2,0,1,0,0,0,0],"split_type":[0,0,0,0,0,0,0],"sum_hessian":[8E2,6.88E2,1.12E2,1.47E2,5.41E2,1.8E1,9.4E1],"tree_param":{"num_deleted":"0","num_feature":"4","num_nodes":"7","size_leaf_vector":"0"}},{"base_weights":[3.968827E0,1.8940537E0,1.5513939E1,4.9273944E-1,6.4268246E0,1.0327092E1,2.2934814E1],"categories":[],"categories_nodes":[],"categories_segments":[],"categories_sizes":[],"default_left":[1,1,1,0,0,0,0],"id":16,"left_children":[1,3,5,-1,-1,-1,-1],"loss_changes":[1.9108488E4,4.4019146E3,2.3273965E3,0E0,0E0,0E0,0E0],"parents":[2147483647,0,0,1,1,2,2],"right_children":[2,4,6,-1,-1,-1,-1],"split_conditions":[4.3772385E1,1.1579872E1,6.150537E1,4.9273945E-2,6.426825E-1,1.0327092E0,2.2934816E0],"split_indices":[2,3,2,0,0,0,0],"split_type":[0,0,0,0,0,0,0],"sum_hessian":[8E2,6.88E2,1.12E2,5.34E2,1.54E2,8E1,3.2E1],"tree_param":{"num_deleted":"0","num_feature":"4","num_nodes":"7","size_leaf_vector":"0"}},{"base_weights":[3.621551E0,1.0314543E1,6.0545915E-1,7.758353E0,2.11874E1,-6.8022275E-1,2.8357546E0],"categories":[],"categories_nodes":[],"categories_segments":[],"categories_sizes":[],"default_left":[1,1,1,0,0,0,0],"id":17,"left_children":[1,3,5,-1,-1,-1,-1],"loss_changes":[1.6288758E4,5.3322695E3,1.6508688E3,0E0,0E0,0E0,0E0],"parents":[2147483647,0,0,1,1,2,2],"right_children":[2,4,6,-1,-1,-1,-1],"split_conditions":[3.5E0,6.150537E1,5.75E1,7.7583534E-1,2.11874E0,-6.802227E-2,2.8357548E-1],"split_indices":[0,2,1,0,0,0,0],"split_type":[0,0,0,0,0,0,0],"sum_hessian":[8E2,2.41E2,5.59E2,2.09E2,3.2E1,3.59E2,2E2],"tree_param":{"num_deleted":"0","num_feature":"4","num_nodes":"7","size_leaf_vector":"0"}},{"base_weights":[3.2977924E0,1.5186622E0,1.320644E1,-1.6067673E-1,4.730096E0,2.1814651E0,1.4904852E1],"categories":[],"categories_nodes":[],"categories_segments":[],"categories_sizes":[],"default_left":[1,1,1,0,0,0,0],"id":18,"left_children":[1,3,5,-1,-1,-1,-1],"loss_changes":[1.4078747E4,3.7719736E3,1.9592988E3,0E0,0E0,0E0,0E0],"parents":[2147483647,0,0,1,1,2,2],"right_children":[2,4,6,-1,-1,-1,-1],"split_conditions":[4.3772385E1,5.95E1,1.05E1,-1.6067674E-2,4.730096E-1,2.1814652E-1,1.4904852E0],"split_indices":[2,1,1,0,0,0,0],"split_type":[0,0,0,0,0,0,0],"sum_hessian":[8E2,6.88E2,1.12E2,4.58E2,2.3E2,1.8E1,9.4E1],"tree_param":{"num_deleted":"0","num_feature":"4","num_nodes":"7","size_leaf_vector":"0"}},{"base_weights":[2.9947486E0,2.4349906E-1,8.61221E0,-1.69494E0,1.4487045E0,6.6833286E0,2.020603E1],"categories":[],"categories_nodes":[],"categories_segments":[],"categories_sizes":[],"default_left":[1,1,1,0,0,0,0],"id":19,"left_children":[1,3,5,-1,-1,-1,-1],"loss_changes":[1.2497611E4,1.3188191E3,4.5981504E3,0E0,0E0,0E0,0E0],"parents":[2147483647,0,0,1,1,2,2],"right_children":[2,4,6,-1,-1,-1,-1],"split_conditions":[2.6100826E1,2.0992959E0,2.67321E1,-1.69494E-1,1.4487045E-1,6.683329E-1,2.020603E0],"split_indices":[2,3,3,0,0,0,0],"split_type":[0,0,0,0,0,0,0],"sum_hessian":[8E2,5.44E2,2.56E2,2.07E2,3.37E2,2.33E2,2.3E1],"tree_param":{"num_deleted":"0","num_feature":"4","num_nodes":"7","size_leaf_vector":"0"}},{"base_weights":[2.7281666E0,7.952108E0,2.1258618E-1,6.1294966E0,1.8797733E1,-1.3883319E0,1.389566E0],"categories":[],"categories_nodes":[],"categories_segments":[],"categories_sizes":[],"default_left":[1,1,1,0,0,0,0],"id":20,"left_children":[1,3,5,-1,-1,-1,-1],"loss_changes":[1.0627503E4,4.0466094E3,1.068818E3,0E0,0E0,0E0,0E0],"parents":[2147483647,0,0,1,1,2,2],"right_children":[2,4,6,-1,-1,-1,-1],"split_conditions":[4.5E0,2.67321E1,2.8783858E0,6.1294967E-1,1.8797734E0,-1.388332E-1,1.3895659E-1],"split_indices":[0,3,3,0,0,0,0],"split_type":[0,0,0,0,0,0,0],"sum_hessian":[8E2,2.53E2,5.47E2,2.3E2,2.3E1,2.31E2,3.16E2],"tree_param":{"num_deleted":"0","num_feature":"4","num_nodes":"7","size_leaf_vector":"0"}},{"base_weights":[2.4861257E0,1.3406651E0,1.2629757E1,-2.4382107E-1,4.2007756E0,2.0086498E0,1.4364873E1],"categories":[],"categories_nodes":[],"categories_segments":[],"categories_sizes":[],"default_left":[1,1,1,0,0,0,0],"id":21,"left_children":[1,3,5,-1,-1,-1,-1],"loss_changes":[9.242172E3,3.359246E3,1.2041982E3,0E0,0E0,0E0,0E0],"parents":[2147483647,0,0,1,1,2,2],"right_children":[2,4,6,-1,-1,-1,-1],"split_conditions":[2.1489063E1,5.75E1,1.25E1,-2.4382107E-2,4.2007756E-1,2.0086499E-1,1.4364873E0],"split_indices":[3,1,1,0,0,0,0],"split_type":[0,0,0,0,0,0,0],"sum_hessian":[8E2,7.29E2,7.1E1,4.75E2,2.54E2,1.3E1,5.8E1],"tree_param":{"num_deleted":"0","num_feature":"4","num_nodes":"7","size_leaf_vector":"0"}},{"base_weights":[2.2626126E0,2.8367592E-2,6.8308287E0,9.9567837E-1,-1.6412635E0,3.0409164E0,1.1188479E1],"categories":[],"categories_nodes":[],"categories_segments":[],"categories_sizes":[],"default_left":[1,1,1,0,0,0,0],"id":22,"left_children":[1,3,5,-1,-1,-1,-1],"loss_changes":[8.265339E3,9.1108057E2,4.052787E3,0E0,0E0,0E0,0E0],"parents":[2147483647,0,0,1,1,2,2],"right_children":[2,4,6,-1,-1,-1,-1],"split_conditions":[2.6100826E1,5.55E1,4.45E1,9.956784E-2,-1.6412635E-1,3.0409166E-1,1.118848E0],"split_indices":[2,0,1,0,0,0,0],"split_type":[0,0,0,0,0,0,0],"sum_hessian":[8E2,5.44E2,2.56E2,3.47E2,1.97E2,1.46E2,1.1E2],"tree_param":{"num_deleted":"0","num_feature":"4","num_nodes":"7","size_leaf_vector":"0"}},{"base_weights":[2.0531213E0,1.1215132E0,1.2053679E1,-5.2162737E-1,3.1714025E0,6.612662E0,1.7464897E1],"categories":[],"categories_nodes":[],"categories_segments":[],"categories_sizes":[],"default_left":[1,1,1,0,0,0,0],"id":23,"left_children":[1,3,5,-1,-1,-1,-1],"loss_changes":[7.4112627E3,2.549472E3,8.471963E2,0E0,0E0,0E0,0E0],"parents":[2147483647,0,0,1,1,2,2],"right_children":[2,4,6,-1,-1,-1,-1],"split_conditions":[2.2899086E1,1.5430384E1,2.7695028E1,-5.2162737E-2,3.1714025E-1,6.612662E-1,1.7464898E0],"split_indices":[3,2,3,0,0,0,0],"split_type":[0,0,0,0,0,0,0],"sum_hessian":[8E2,7.42E2,5.8E1,4.16E2,3.26E2,4E1,1.8E1],"tree_param":{"num_deleted":"0","num_feature":"4","num_nodes":"7","size_leaf_vector":"0"}},{"base_weights":[1.880806E0,1.0128856E0,1.1202395E1,-3.2973427E-1,3.4499207E0,6.083652E0,1.6342154E1],"categories":[],"categories_nodes":[],"categories_segments":[],"categories_sizes":[],"default_left":[1,1,1,0,0,0,0],"id":24,"left_children":[1,3,5,-1,-1,-1,-1],"loss_changes":[6.439755E3,2.4719282E3,7.9481836E2,0E0,0E0,0E0,0E0],"parents":[2147483647,0,0,1,1,2,2],"right_children":[2,4,6,-1,-1,-1,-1],"split_conditions":[2.2899086E1,5.75E1,2.7695028E1,-3.2973427E-2,3.4499207E-1,6.0836524E-1,1.6342154E0],"split_indices":[3,1,3,0,0,0,0],"split_type":[0,0,0,0,0,0,0],"sum_hessian":[8E2,7.42E2,5.8E1,4.84E2,2.58E2,4E1,1.8E1],"tree_param":{"num_deleted":"0","num_feature":"4","num_nodes":"7","size_leaf_vector":"0"}},{"base_weights":[1.7242637E0,5.62833E0,-1.5008484E-1,3.0607736E0,1.1543137E1,6.6945696E-1,-1.5681244E0],"categories":[],"categories_nodes":[],"categories_segments":[],"categories_sizes":[],"default_left":[1,1,1,0,0,0,0],"id":25,"left_children":[1,3,5,-1,-1,-1,-1],"loss_changes":[5.9356875E3,3.6407656E3,6.578114E2,0E0,0E0,0E0,0E0],"parents":[2147483647,0,0,1,1,2,2],"right_children":[2,4,6,-1,-1,-1,-1],"split_conditions":[4.5E0,6.35E1,5.55E1,3.0607736E-1,1.1543137E0,6.6945694E-2,-1.5681244E-1],"split_indices":[0,1,0,0,0,0,0],"split_type":[0,0,0,0,0,0,0],"sum_hessian":[8E2,2.53E2,5.47E2,1.87E2,6.6E1,3.5E2,1.97E2],"tree_param":{"num_deleted":"0","num_feature":"4","num_nodes":"7","size_leaf_vector":"0"}},{"base_weights":[1.5687574E0,6.7292297E-1,8.936104E0,-8.969336E-1,2.3975954E0,5.1664124E0,1.5034234E1],"categories":[],"categories_nodes":[],"categories_segments":[],"categories_sizes":[],"default_left":[1,1,1,0,0,0,0],"id":26,"left_children":[1,3,5,-1,-1,-1,-1],"loss_changes":[5.2858037E3,2.0060938E3,1.2232314E3,0E0,0E0,0E0,0E0],"parents":[2147483647,0,0,1,1,2,2],"right_children":[2,4,6,-1,-1,-1,-1],"split_conditions":[5.0324554E1,4.45E1,2.7695028E1,-8.969336E-2,2.3975955E-1,5.1664126E-1,1.5034235E0],"split_indices":[2,1,3,0,0,0,0],"split_type":[0,0,0,0,0,0,0],"sum_hessian":[8E2,7.23E2,7.7E1,3.81E2,3.42E2,5.9E1,1.8E1],"tree_param":{"num_deleted":"0","num_feature":"4","num_nodes":"7","size_leaf_vector":"0"}},{"base_weights":[1.4386735E0,3.588316E-1,6.7638583E0,-1.552659E0,1.5529423E0,4.457524E0,1.4067746E1],"categories":[],"categories_nodes":[],"categories_segments":[],"categories_sizes":[],"default_left":[1,1,1,0,0,0,0],"id":27,"left_children":[1,3,5,-1,-1,-1,-1],"loss_changes":[4.6335186E3,1.5853634E3,1.663875E3,0E0,0E0,0E0,0E0],"parents":[2147483647,0,0,1,1,2,2],"right_children":[2,4,6,-1,-1,-1,-1],"split_conditions":[1.6753288E1,3.05E1,2.7695028E1,-1.5526591E-1,1.5529422E-1,4.4575238E-1,1.4067746E0],"split_indices":[3,1,3,0,0,0,0],"split_type":[0,0,0,0,0,0,0],"sum_hessian":[8E2,6.74E2,1.26E2,2.58E2,4.16E2,1.08E2,1.8E1],"tree_param":{"num_deleted":"0","num_feature":"4","num_nodes":"7","size_leaf_vector":"0"}},{"base_weights":[1.317677E0,4.576148E0,-2.445396E-1,2.2644672E0,9.966144E0,9.171466E-1,-1.1335742E0],"categories":[],"categories_nodes":[],"categories_segments":[],"categories_sizes":[],"default_left":[1,1,1,0,0,0,0],"id":28,"left_children":[1,3,5,-1,-1,-1,-1],"loss_changes":[4.134446E3,3.0512866E3,5.856546E2,0E0,0E0,0E0,0E0],"parents":[2147483647,0,0,1,1,2,2],"right_children":[2,4,6,-1,-1,-1,-1],"split_conditions":[4.5E0,6.35E1,3.15E1,2.2644673E-1,9.966144E-1,9.1714665E-2,-1.13357425E-1],"split_indices":[0,1,0,0,0,0,0],"split_type":[0,0,0,0,0,0,0],"sum_hessian":[8E2,2.53E2,5.47E2,1.87E2,6.6E1,2.37E2,3.1E2],"tree_param":{"num_deleted":"0","num_feature":"4","num_nodes":"7","size_leaf_vector":"0"}},{"base_weights":[1.2007416E0,7.6975024E-1,1.2962804E1,-3.3839187E-1,2.9988523E0],"categories":[],"categories_nodes":[],"categories_segments":[],"categories_sizes":[],"default_left":[1,1,0,0,0],"id":29,"left_children":[1,3,-1,-1,-1],"loss_changes":[4.0063901E3,1.9665161E3,0E0,0E0,0E0],"parents":[2147483647,0,0,1,1],"right_children":[2,4,-1,-1,-1],"split_conditions":[2.7695028E1,5.95E1,1.2962804E0,-3.383919E-2,2.9988524E-1],"split_indices":[3,1,0,0,0],"split_type":[0,0,0,0,0],"sum_hessian":[8E2,7.82E2,1.8E1,5.28E2,2.54E2],"tree_param":{"num_deleted":"0","num_feature":"4","num_nodes":"5","size_leaf_vector":"0"}},{"base_weights":[1.0999553E0,6.961342E-1,1.2129481E1,-3.7052894E-1,2.9055424E0,1.3825936E0,1.2866071E1],"categories":[],"categories_nodes":[],"categories_segments":[],"categories_sizes":[],"default_left":[1,1,1,0,0,0,0],"id":30,"left_children":[1,3,5,-1,-1,-1,-1],"loss_changes":[3.5232664E3,1.8772678E3,4.376416E1,0E0,0E0,0E0,0E0],"parents":[2147483647,0,0,1,1,2,2],"right_children":[2,4,6,-1,-1,-1,-1],"split_conditions":[2.7695028E1,1.1523788E1,1.15E1,-3.7052896E-2,2.9055426E-1,1.3825937E-1,1.2866071E0],"split_indices":[3,3,1,0,0,0,0],"split_type":[0,0,0,0,0,0,0],"sum_hessian":[8E2,7.82E2,1.8E1,5.33E2,2.49E2,3E0,1.5E1],"tree_param":{"num_deleted":"0","num_feature":"4","num_nodes":"7","size_leaf_vector":"0"}},{"base_weights":[1.0106802E0,6.2972146E-1,1.1425415E1,-2.7694108E0,1.2361958E0,1.3506875E0,1.2094107E1],"categories":[],"categories_nodes":[],"categories_segments":[],"categories_sizes":[],"default_left":[1,1,1,0,0,0,0],"id":31,"left_children":[1,3,5,-1,-1,-1,-1],"loss_changes":[3.1417954E3,1.6669326E3,2.5279297E1,0E0,0E0,0E0,0E0],"parents":[2147483647,0,0,1,1,2,2],"right_children":[2,4,6,-1,-1,-1,-1],"split_conditions":[2.7695028E1,1.05E1,1.15E1,-2.769411E-1,1.2361958E-1,1.3506876E-1,1.2094107E0],"split_indices":[3,1,1,0,0,0,0],"split_type":[0,0,0,0,0,0,0],"sum_hessian":[8E2,7.82E2,1.8E1,1.13E2,6.69E2,3E0,1.5E1],"tree_param":{"num_deleted":"0","num_feature":"4","num_nodes":"7","size_leaf_vector":"0"}},{"base_weights":[9.2431796E-1,3.4682122E-1,7.1748233E0,1.4210205E0,-1.1477547E0,-6.41604E-2,8.289949E0],"categories":[],"categories_nodes":[],"categories_segments":[],"categories_sizes":[],"default_left":[1,1,1,0,0,0,0],"id":32,"left_children":[1,3,5,-1,-1,-1,-1],"loss_changes":[2.8989297E3,1.223625E3,5.542407E2,0E0,0E0,0E0,0E0],"parents":[2147483647,0,0,1,1,2,2],"right_children":[2,4,6,-1,-1,-1,-1],"split_conditions":[2.2899086E1,3.15E1,1.25E1,1.4210205E-1,-1.1477547E-1,-6.41604E-3,8.289949E-1],"split_indices":[3,0,1,0,0,0,0],"split_type":[0,0,0,0,0,0,0],"sum_hessian":[8E2,7.42E2,5.8E1,4.32E2,3.1E2,9E0,4.9E1],"tree_param":{"num_deleted":"0","num_feature":"4","num_nodes":"7","size_leaf_vector":"0"}},{"base_weights":[8.42379E-1,4.9668866E-1,1.0319627E1,-5.2905995E-1,2.3912382E0],"categories":[],"categories_nodes":[],"categories_segments":[],"categories_sizes":[],"default_left":[1,1,0,0,0],"id":33,"left_children":[1,3,-1,-1,-1],"loss_changes":[2.60246E3,1.5517698E3,0E0,0E0,0E0],"parents":[2147483647,0,0,1,1],"right_children":[2,4,-1,-1,-1],"split_conditions":[2.7695028E1,5.75E1,1.0319628E0,-5.2905995E-2,2.3912382E-1],"split_indices":[3,1,0,0,0],"split_type":[0,0,0,0,0],"sum_hessian":[8E2,7.82E2,1.8E1,5.12E2,2.7E2],"tree_param":{"num_deleted":"0","num_feature":"4","num_nodes":"5","size_leaf_vector":"0"}},{"base_weights":[7.7318037E-1,-4.479203E-1,3.165064E0,-1.6626403E0,1.765164E-1,-3.6898625E0,4.928987E0],"categories":[],"categories_nodes":[],"categories_segments":[],"categories_sizes":[],"default_left":[1,1,1,0,0,0,0],"id":34,"left_children":[1,3,5,-1,-1,-1,-1],"loss_changes":[2.379969E3,4.163259E2,3.5070522E3,0E0,0E0,0E0,0E0],"parents":[2147483647,0,0,1,1,2,2],"right_children":[2,4,6,-1,-1,-1,-1],"split_conditions":[1.160796E1,1.4657118E0,1.05E1,-1.6626404E-1,1.765164E-2,-3.6898625E-1,4.928987E-1],"split_indices":[3,3,1,0,0,0,0],"split_type":[0,0,0,0,0,0,0],"sum_hessian":[8E2,5.35E2,2.65E2,1.76E2,3.59E2,5.2E1,2.13E2],"tree_param":{"num_deleted":"0","num_feature":"4","num_nodes":"7","size_leaf_vector":"0"}},{"base_weights":[6.9555765E-1,3.9388388E-1,1.001056E1,-7.8298736E-1,1.7195127E0],"categories":[],"categories_nodes":[],"categories_segments":[],"categories_sizes":[],"default_left":[1,1,0,0,0],"id":35,"left_children":[1,3,-1,-1,-1],"loss_changes":[2.2367441E3,1.2537385E3,0E0,0E0,0E0],"parents":[2147483647,0,0,1,1],"right_children":[2,4,-1,-1,-1],"split_conditions":[2.8023777E1,4.45E1,1.0010561E0,-7.829874E-2,1.7195128E-1],"split_indices":[3,1,0,0,0],"split_type":[0,0,0,0,0],"sum_hessian":[8E2,7.85E2,1.5E1,4.18E2,3.67E2],"tree_param":{"num_deleted":"0","num_feature":"4","num_nodes":"5","size_leaf_vector":"0"}},{"base_weights":[6.3951695E-1,3.556736E-1,9.409928E0,1.5415596E0,-7.841563E-1],"categories":[],"categories_nodes":[],"categories_segments":[],"categories_sizes":[],"default_left":[1,1,0,0,0],"id":36,"left_children":[1,3,-1,-1,-1],"loss_changes":[1.9829639E3,1.0866964E3,0E0,0E0,0E0],"parents":[2147483647,0,0,1,1],"right_children":[2,4,-1,-1,-1],"split_conditions":[2.8023777E1,1.95E1,9.4099283E-1,1.5415595E-1,-7.841563E-2],"split_indices":[3,0,0,0,0],"split_type":[0,0,0,0,0],"sum_hessian":[8E2,7.85E2,1.5E1,3.83E2,4.02E2],"tree_param":{"num_deleted":"0","num_feature":"4","num_nodes":"5","size_leaf_vector":"0"}},{"base_weights":[5.8811736E-1,-3.3582486E-2,4.0968494E0,-5.294658E-1,2.8174028E0,-1.1567465E0,5.117351E0],"categories":[],"categories_nodes":[],"categories_segments":[],"categories_sizes":[],"default_left":[1,1,1,0,0,0,0],"id":37,"left_children":[1,3,5,-1,-1,-1,-1],"loss_changes":[1.7682921E3,1.00171893E3,7.1327405E2,0E0,0E0,0E0,0E0],"parents":[2147483647,0,0,1,1,2,2],"right_children":[2,4,6,-1,-1,-1,-1],"split_conditions":[4.3772385E1,8.55E1,1.05E1,-5.294658E-2,2.8174028E-1,-1.1567465E-1,5.1173514E-1],"split_indices":[2,1,1,0,0,0,0],"split_type":[0,0,0,0,0,0,0],"sum_hessian":[8E2,6.88E2,1.12E2,5.93E2,9.5E1,1.8E1,9.4E1],"tree_param":{"num_deleted":"0","num_feature":"4","num_nodes":"7","size_leaf_vector":"0"}},{"base_weights":[5.3701997E-1,3.034597E-1,9.61092E0,-2.2890837E0,7.721215E-1],"categories":[],"categories_nodes":[],"categories_segments":[],"categories_sizes":[],"default_left":[1,1,0,0,0],"id":38,"left_children":[1,3,-1,-1,-1],"loss_changes":[1.6874695E3,9.8969525E2,0E0,0E0,0E0],"parents":[2147483647,0,0,1,1],"right_children":[2,4,-1,-1,-1],"split_conditions":[2.899849E1,1.05E1,9.61092E-1,-2.2890837E-1,7.721215E-2],"split_indices":[3,1,0,0,0],"split_type":[0,0,0,0,0],"sum_hessian":[8E2,7.9E2,1E1,1.15E2,6.75E2],"tree_param":{"num_deleted":"0","num_feature":"4","num_nodes":"5","size_leaf_vector":"0"}},{"base_weights":[4.9331063E-1,2.2985819E-1,7.7690687E0,-4.5398107E-1,1.8899696E0,1.9403577E0,9.130375E0],"categories":[],"categories_nodes":[],"categories_segments":[],"categories_sizes":[],"default_left":[1,1,1,0,0,0,0],"id":39,"left_children":[1,3,5,-1,-1,-1,-1],"loss_changes":[1.5347634E3,9.076976E2,4.5008423E1,0E0,0E0,0E0,0E0],"parents":[2147483647,0,0,1,1,2,2],"right_children":[2,4,6,-1,-1,-1,-1],"split_conditions":[2.7695028E1,6.35E1,2.899849E1,-4.539811E-2,1.8899696E-1,1.9403577E-1,9.130375E-1],"split_indices":[3,1,3,0,0,0,0],"split_type":[0,0,0,0,0,0,0],"sum_hessian":[8E2,7.82E2,1.8E1,5.59E2,2.23E2,8E0,1E1],"tree_param":{"num_deleted":"0","num_feature":"4","num_nodes":"7","size_leaf_vector":"0"}},{"base_weights":[4.5942E-1,-4.9162814E-1,2.3071635E0,1.3417923E-1,-1.4903693E0,-3.8945088E-1,5.973741E0],"categories":[],"categories_nodes":[],"categories_segments":[],"categories_sizes":[],"default_left":[1,1,1,0,0,0,0],"id":40,"left_children":[1,3,5,-1,-1,-1,-1],"loss_changes":[1.4347498E3,3.413854E2,2.7620596E3,0E0,0E0,0E0,0E0],"parents":[2147483647,0,0,1,1,2,2],"right_children":[2,4,6,-1,-1,-1,-1],"split_conditions":[1.1523788E1,5.45E1,4.45E1,1.3417924E-2,-1.4903693E-1,-3.894509E-2,5.9737414E-1],"split_indices":[3,0,1,0,0,0,0],"split_type":[0,0,0,0,0,0,0],"sum_hessian":[8E2,5.33E2,2.67E2,3.33E2,2E2,1.59E2,1.08E2],"tree_param":{"num_deleted":"0","num_feature":"4","num_nodes":"7","size_leaf_vector":"0"}},{"base_weights":[4.186979E-1,1.8308096E-1,7.743837E0,-2.0274943E-1,2.55406E0,1.4425547E0,8.59788E0],"categories":[],"categories_nodes":[],"categories_segments":[],"categories_sizes":[],"default_left":[1,1,1,0,0,0,0],"id":41,"left_children":[1,3,5,-1,-1,-1,-1],"loss_changes":[1.3838232E3,7.32441E2,1.0510132E1,0E0,0E0,0E0,0E0],"parents":[2147483647,0,0,1,1,2,2],"right_children":[2,4,6,-1,-1,-1,-1],"split_conditions":[2.8023777E1,8.55E1,2.899849E1,-2.0274943E-2,2.55406E-1,1.4425547E-1,8.5978806E-1],"split_indices":[3,1,3,0,0,0,0],"split_type":[0,0,0,0,0,0,0],"sum_hessian":[8E2,7.85E2,1.5E1,6.83E2,1.02E2,5E0,1E1],"tree_param":{"num_deleted":"0","num_feature":"4","num_nodes":"7","size_leaf_vector":"0"}},{"base_weights":[3.9212647E-1,1.5388104E-1,6.9910235E0,9.279134E-1,-9.636148E-1,6.8460083E-1,7.4739537E0],"categories":[],"categories_nodes":[],"categories_segments":[],"categories_sizes":[],"default_left":[1,1,1,0,0,0,0],"id":42,"left_children":[1,3,5,-1,-1,-1,-1],"loss_changes":[1.2626892E3,6.940041E2,3.410901E1,0E0,0E0,0E0,0E0],"parents":[2147483647,0,0,1,1,2,2],"right_children":[2,4,6,-1,-1,-1,-1],"split_conditions":[2.7695028E1,2.95E1,1.15E1,9.279134E-2,-9.636148E-2,6.8460084E-2,7.473954E-1],"split_indices":[3,0,1,0,0,0,0],"split_type":[0,0,0,0,0,0,0],"sum_hessian":[8E2,7.82E2,1.8E1,4.63E2,3.19E2,3E0,1.5E1],"tree_param":{"num_deleted":"0","num_feature":"4","num_nodes":"7","size_leaf_vector":"0"}},{"base_weights":[3.629421E-1,1.7177303E-1,7.8282347E0,-2.0228188E0,5.697384E-1],"categories":[],"categories_nodes":[],"categories_segments":[],"categories_sizes":[],"default_left":[1,1,0,0,0],"id":43,"left_children":[1,3,-1,-1,-1],"loss_changes":[1.142531E3,7.102219E2,0E0,0E0,0E0],"parents":[2147483647,0,0,1,1],"right_children":[2,4,-1,-1,-1],"split_conditions":[2.899849E1,1.05E1,7.828235E-1,-2.0228188E-1,5.697384E-2],"split_indices":[3,1,0,0,0],"split_type":[0,0,0,0,0],"sum_hessian":[8E2,7.9E2,1E1,1.15E2,6.75E2],"tree_param":{"num_deleted":"0","num_feature":"4","num_nodes":"5","size_leaf_vector":"0"}},{"base_weights":[3.3451837E-1,2.8957544E-2,4.6933856E0,-2.0780227E0,4.095671E-1,8.052274E0,2.306856E0],"categories":[],"categories_nodes":[],"categories_segments":[],"categories_sizes":[],"default_left":[1,1,1,0,0,0,0],"id":44,"left_children":[1,3,5,-1,-1,-1,-1],"loss_changes":[1.0774792E3,6.2359644E2,2.3909827E2,0E0,0E0,0E0,0E0],"parents":[2147483647,0,0,1,1,2,2],"right_children":[2,4,6,-1,-1,-1,-1],"split_conditions":[2.4414879E1,1.05E1,2.4858246E1,-2.0780228E-1,4.095671E-2,8.052274E-1,2.3068559E-1],"split_indices":[3,1,3,0,0,0,0],"split_type":[0,0,0,0,0,0,0],"sum_hessian":[8E2,7.57E2,4.3E1,1.09E2,6.48E2,8E0,3.5E1],"tree_param":{"num_deleted":"0","num_feature":"4","num_nodes":"7","size_leaf_vector":"0"}},{"base_weights":[3.1179583E-1,1.3265622E-1,7.3214827E0,-9.433066E-1,8.4355855E-1],"categories":[],"categories_nodes":[],"categories_segments":[],"categories_sizes":[],"default_left":[1,1,0,0,0],"id":45,"left_children":[1,3,-1,-1,-1],"loss_changes":[1.0074148E3,6.19881E2,0E0,0E0,0E0],"parents":[2147483647,0,0,1,1],"right_children":[2,4,-1,-1,-1],"split_conditions":[2.899849E1,5.694397E0,7.321483E-1,-9.433066E-2,8.435585E-2],"split_indices":[3,3,0,0,0],"split_type":[0,0,0,0,0],"sum_hessian":[8E2,7.9E2,1E1,3.13E2,4.77E2],"tree_param":{"num_deleted":"0","num_feature":"4","num_nodes":"5","size_leaf_vector":"0"}},{"base_weights":[2.895319E-1,1.1926581E-1,6.955409E0,-2.1825446E-1,2.2120917E0],"categories":[],"categories_nodes":[],"categories_segments":[],"categories_sizes":[],"default_left":[1,1,0,0,0],"id":46,"left_children":[1,3,-1,-1,-1],"loss_changes":[9.110324E2,5.6992487E2,0E0,0E0,0E0],"parents":[2147483647,0,0,1,1],"right_children":[2,4,-1,-1,-1],"split_conditions":[2.899849E1,8.55E1,6.955409E-1,-2.1825446E-2,2.2120917E-1],"split_indices":[3,1,0,0,0],"split_type":[0,0,0,0,0],"sum_hessian":[8E2,7.9E2,1E1,6.88E2,1.02E2],"tree_param":{"num_deleted":"0","num_feature":"4","num_nodes":"5","size_leaf_vector":"0"}},{"base_weights":[2.716272E-1,1.775303E0,-4.4324356E-1,1.3943641E-1,5.7820487E0,-3.249416E-2,-1.4515157E0],"categories":[],"categories_nodes":[],"categories_segments":[],"categories_sizes":[],"default_left":[1,1,1,0,0,0,0],"id":47,"left_children":[1,3,5,-1,-1,-1,-1],"loss_changes":[8.785653E2,1.7157717E3,2.302083E2,0E0,0E0,0E0,0E0],"parents":[2147483647,0,0,1,1,2,2],"right_children":[2,4,6,-1,-1,-1,-1],"split_conditions":[4.5E0,6.35E1,8.2E1,1.3943641E-2,5.782049E-1,-3.2494161E-3,-1.4515157E-1],"split_indices":[0,1,0,0,0,0,0],"split_type":[0,0,0,0,0,0,0],"sum_hessian":[8E2,2.53E2,5.47E2,1.87E2,6.6E1,3.96E2,1.51E2],"tree_param":{"num_deleted":"0","num_feature":"4","num_nodes":"7","size_leaf_vector":"0"}},{"base_weights":[2.4994296E-1,5.832824E-2,5.5806365E0,-1.2773988E0,4.6920773E-1,4.6381027E-1,6.009132E0],"categories":[],"categories_nodes":[],"categories_segments":[],"categories_sizes":[],"default_left":[1,1,1,0,0,0,0],"id":48,"left_children":[1,3,5,-1,-1,-1,-1],"loss_changes":[8.241107E2,4.4066138E2,3.352008E1,0E0,0E0,0E0,0E0],"parents":[2147483647,0,0,1,1,2,2],"right_children":[2,4,6,-1,-1,-1,-1],"split_conditions":[2.7695028E1,1.75E1,1.15E1,-1.2773989E-1,4.6920773E-2,4.6381027E-2,6.009132E-1],"split_indices":[3,1,1,0,0,0,0],"split_type":[0,0,0,0,0,0,0],"sum_hessian":[8E2,7.82E2,1.8E1,1.79E2,6.03E2,3E0,1.5E1],"tree_param":{"num_deleted":"0","num_feature":"4","num_nodes":"7","size_leaf_vector":"0"}},{"base_weights":[2.319421E-1,-1.1017179E-1,2.9471245E0,-3.8661605E-1,1.5695176E0,1.7624463E0,6.271509E0],"categories":[],"categories_nodes":[],"categories_segments":[],"categories_sizes":[],"default_left":[1,1,1,0,0,0,0],"id":49,"left_children":[1,3,5,-1,-1,-1,-1],"loss_changes":[7.556571E2,3.445722E2,2.4785577E2,0E0,0E0,0E0,0E0],"parents":[2147483647,0,0,1,1,2,2],"right_children":[2,4,6,-1,-1,-1,-1],"split_conditions":[2.021783E1,8.55E1,2.899849E1,-3.8661607E-2,1.5695177E-1,1.7624463E-1,6.2715095E-1],"split_indices":[3,1,3,0,0,0,0],"split_type":[0,0,0,0,0,0,0],"sum_hessian":[8E2,7.19E2,8.1E1,6.24E2,9.5E1,7.1E1,1E1],"tree_param":{"num_deleted":"0","num_feature":"4","num_nodes":"7","size_leaf_vector":"0"}},{"base_weights":[2.2012669E-1,-4.3199775E-1,1.5045141E0,-2.266874E-1,-2.718216E0,-7.1698564E-1,4.61131E0],"categories":[],"categories_nodes":[],"categories_segments":[],"categories_sizes":[],"default_left":[1,1,1,0,0,0,0],"id":50,"left_children":[1,3,5,-1,-1,-1,-1],"loss_changes":[6.849397E2,2.4965256E2,1.9310427E3,0E0,0E0,0E0,0E0],"parents":[2147483647,0,0,1,1,2,2],"right_children":[2,4,6,-1,-1,-1,-1],"split_conditions":[1.160796E1,1.0307664E1,4.45E1,-2.266874E-2,-2.718216E-1,-7.169857E-2,4.61131E-1],"split_indices":[3,3,1,0,0,0,0],"split_type":[0,0,0,0,0,0,0],"sum_hessian":[8E2,5.35E2,2.65E2,5.01E2,3.4E1,1.59E2,1.06E2],"tree_param":{"num_deleted":"0","num_feature":"4","num_nodes":"7","size_leaf_vector":"0"}},{"base_weights":[1.9928634E-1,5.393094E-2,5.9138594E0,5.140797E-1,-1.0476768E0],"categories":[],"categories_nodes":[],"categories_segments":[],"categories_sizes":[],"default_left":[1,1,0,0,0],"id":51,"left_children":[1,3,-1,-1,-1],"loss_changes":[6.696324E2,4.1090866E2,0E0,0E0,0E0],"parents":[2147483647,0,0,1,1],"right_children":[2,4,-1,-1,-1],"split_conditions":[2.899849E1,4.75E1,5.9138596E-1,5.140797E-2,-1.0476768E-1],"split_indices":[3,0,0,0,0],"split_type":[0,0,0,0,0],"sum_hessian":[8E2,7.9E2,1E1,5.61E2,2.29E2],"tree_param":{"num_deleted":"0","num_feature":"4","num_nodes":"5","size_leaf_vector":"0"}},{"base_weights":[1.8600014E-1,4.7870964E-2,5.618167E0,-1.5105299E0,3.3155182E-1],"categories":[],"categories_nodes":[],"categories_segments":[],"categories_sizes":[],"default_left":[1,1,0,0,0],"id":52,"left_children":[1,3,-1,-1,-1],"loss_changes":[6.050865E2,3.5867896E2,0E0,0E0,0E0],"parents":[2147483647,0,0,1,1],"right_children":[2,4,-1,-1,-1],"split_conditions":[2.899849E1,1.05E1,5.618167E-1,-1.51053E-1,3.3155184E-2],"split_indices":[3,1,0,0,0],"split_type":[0,0,0,0,0],"sum_hessian":[8E2,7.9E2,1E1,1.15E2,6.75E2],"tree_param":{"num_deleted":"0","num_feature":"4","num_nodes":"5","size_leaf_vector":"0"}},{"base_weights":[1.7288068E-1,2.5411263E-2,4.793256E0,4.110143E-1,-1.0613296E0,8.724126E-1,5.3372602E0],"categories":[],"categories_nodes":[],"categories_segments":[],"categories_sizes":[],"default_left":[1,1,1,0,0,0,0],"id":53,"left_children":[1,3,5,-1,-1,-1,-1],"loss_changes":[5.506869E2,3.3750742E2,6.7609863E0,0E0,0E0,0E0,0E0],"parents":[2147483647,0,0,1,1,2,2],"right_children":[2,4,6,-1,-1,-1,-1],"split_conditions":[2.8023777E1,5.45E1,2.899849E1,4.110143E-2,-1.0613296E-1,8.724126E-2,5.3372604E-1],"split_indices":[3,0,3,0,0,0,0],"split_type":[0,0,0,0,0,0,0],"sum_hessian":[8E2,7.85E2,1.5E1,5.84E2,2.01E2,5E0,1E1],"tree_param":{"num_deleted":"0","num_feature":"4","num_nodes":"7","size_leaf_vector":"0"}},{"base_weights":[1.624563E-1,-1.5048173E-1,2.1675603E0,-4.0529113E-2,-4.8943458E0,8.134119E-1,5.2141056E0],"categories":[],"categories_nodes":[],"categories_segments":[],"categories_sizes":[],"default_left":[1,1,1,0,0,0,0],"id":54,"left_children":[1,3,5,-1,-1,-1,-1],"loss_changes":[5.1151514E2,3.6835257E2,4.1139008E2,0E0,0E0,0E0,0E0],"parents":[2147483647,0,0,1,1,2,2],"right_children":[2,4,6,-1,-1,-1,-1],"split_conditions":[1.867255E1,1.823227E1,6E1,-4.0529114E-3,-4.8943457E-1,8.134119E-2,5.214106E-1],"split_indices":[3,3,1,0,0,0,0],"split_type":[0,0,0,0,0,0,0],"sum_hessian":[8E2,7E2,1E2,6.94E2,6E0,7.8E1,2.2E1],"tree_param":{"num_deleted":"0","num_feature":"4","num_nodes":"7","size_leaf_vector":"0"}},{"base_weights":[1.4755945E-1,1.2898605E-3,4.2321997E0,1.2106054E-1,-3.43705E0,2.5121894E-1,4.60943E0],"categories":[],"categories_nodes":[],"categories_segments":[],"categories_sizes":[],"default_left":[1,1,1,0,0,0,0],"id":55,"left_children":[1,3,5,-1,-1,-1,-1],"loss_changes":[4.838869E2,3.3031625E2,3.0469147E1,0E0,0E0,0E0,0E0],"parents":[2147483647,0,0,1,1,2,2],"right_children":[2,4,6,-1,-1,-1,-1],"split_conditions":[2.7695028E1,2.4858246E1,1.15E1,1.2106054E-2,-3.4370503E-1,2.5121896E-2,4.6094298E-1],"split_indices":[3,3,1,0,0,0,0],"split_type":[0,0,0,0,0,0,0],"sum_hessian":[8E2,7.82E2,1.8E1,7.65E2,1.7E1,3E0,1.5E1],"tree_param":{"num_deleted":"0","num_feature":"4","num_nodes":"7","size_leaf_vector":"0"}},{"base_weights":[1.3471024E-1,-6.296734E-2,2.9700232E0,-1.5837605E0,2.1302667E-1,7.380921E0,5.4565907E-1],"categories":[],"categories_nodes":[],"categories_segments":[],"categories_sizes":[],"default_left":[1,1,1,0,0,0,0],"id":56,"left_children":[1,3,5,-1,-1,-1,-1],"loss_changes":[4.5585718E2,3.2530658E2,5.264873E2,0E0,0E0,0E0,0E0],"parents":[2147483647,0,0,1,1,2,2],"right_children":[2,4,6,-1,-1,-1,-1],"split_conditions":[2.4414879E1,1.05E1,2.4858246E1,-1.5837605E-1,2.1302668E-2,7.380921E-1,5.4565907E-2],"split_indices":[3,1,3,0,0,0,0],"split_type":[0,0,0,0,0,0,0],"sum_hessian":[8E2,7.57E2,4.3E1,1.09E2,6.48E2,8E0,3.5E1],"tree_param":{"num_deleted":"0","num_feature":"4","num_nodes":"7","size_leaf_vector":"0"}},{"base_weights":[1.2933302E-1,1.220586E-2,4.749753E0,-2.3080523E-1,1.5255959E0],"categories":[],"categories_nodes":[],"categories_segments":[],"categories_sizes":[],"default_left":[1,1,0,0,0],"id":57,"left_children":[1,3,-1,-1,-1],"loss_changes":[4.3777332E2,2.977376E2,0E0,0E0,0E0],"parents":[2147483647,0,0,1,1],"right_children":[2,4,-1,-1,-1],"split_conditions":[2.899849E1,8.55E1,4.7497532E-1,-2.3080524E-2,1.525596E-1],"split_indices":[3,1,0,0,0],"split_type":[0,0,0,0,0],"sum_hessian":[8E2,7.9E2,1E1,6.88E2,1.02E2],"tree_param":{"num_deleted":"0","num_feature":"4","num_nodes":"5","size_leaf_vector":"0"}},{"base_weights":[1.23861894E-1,-3.841809E-1,1.1262063E0,9.749402E-3,-1.6949292E0,-4.9726966E-1,4.5749617E0],"categories":[],"categories_nodes":[],"categories_segments":[],"categories_sizes":[],"default_left":[1,1,1,0,0,0,0],"id":58,"left_children":[1,3,5,-1,-1,-1,-1],"loss_changes":[4.1680606E2,2.8157245E2,1.5624668E3,0E0,0E0,0E0,0E0],"parents":[2147483647,0,0,1,1,2,2],"right_children":[2,4,6,-1,-1,-1,-1],"split_conditions":[1.160796E1,7.35E1,5.9E1,9.7494025E-4,-1.6949293E-1,-4.9726967E-2,4.5749617E-1],"split_indices":[3,1,1,0,0,0,0],"split_type":[0,0,0,0,0,0,0],"sum_hessian":[8E2,5.35E2,2.65E2,4.19E2,1.16E2,1.86E2,7.9E1],"tree_param":{"num_deleted":"0","num_feature":"4","num_nodes":"7","size_leaf_vector":"0"}},{"base_weights":[1.14429496E-1,3.6996985E-3,4.486407E0,-9.724906E-1,3.3225718E-1],"categories":[],"categories_nodes":[],"categories_segments":[],"categories_sizes":[],"default_left":[1,1,0,0,0],"id":59,"left_children":[1,3,-1,-1,-1],"loss_changes":[3.9196164E2,2.5981888E2,0E0,0E0,0E0],"parents":[2147483647,0,0,1,1],"right_children":[2,4,-1,-1,-1],"split_conditions":[2.899849E1,1.6479135E0,4.4864067E-1,-9.724906E-2,3.322572E-2],"split_indices":[3,3,0,0,0],"split_type":[0,0,0,0,0],"sum_hessian":[8E2,7.9E2,1E1,1.94E2,5.96E2],"tree_param":{"num_deleted":"0","num_feature":"4","num_nodes":"5","size_leaf_vector":"0"}},{"base_weights":[1.0773481E-1,-1.7459601E-2,3.6104715E0,9.88427E-2,-3.3493E0,4.2053494E0,5.3596973E-1],"categories":[],"categories_nodes":[],"categories_segments":[],"categories_sizes":[],"default_left":[1,1,1,0,0,0,0],"id":60,"left_children":[1,3,5,-1,-1,-1,-1],"loss_changes":[3.5583405E2,3.1021112E2,2.8671326E1,0E0,0E0,0E0,0E0],"parents":[2147483647,0,0,1,1,2,2],"right_children":[2,4,6,-1,-1,-1,-1],"split_conditions":[2.7695028E1,2.4858246E1,3.7E1,9.884271E-3,-3.3493E-1,4.2053494E-1,5.3596973E-2],"split_indices":[3,3,1,0,0,0,0],"split_type":[0,0,0,0,0,0,0],"sum_hessian":[8E2,7.82E2,1.8E1,7.65E2,1.7E1,1.2E1,6E0],"tree_param":{"num_deleted":"0","num_feature":"4","num_nodes":"7","size_leaf_vector":"0"}},{"base_weights":[9.880195E-2,-7.426036E-2,2.5846655E0,-3.0737162E-1,1.3459926E0,6.999962E0,2.4417673E-1],"categories":[],"categories_nodes":[],"categories_segments":[],"categories_sizes":[],"default_left":[1,1,1,0,0,0,0],"id":61,"left_children":[1,3,5,-1,-1,-1,-1],"loss_changes":[3.503889E2,2.580732E2,5.306072E2,0E0,0E0,0E0,0E0],"parents":[2147483647,0,0,1,1,2,2],"right_children":[2,4,6,-1,-1,-1,-1],"split_conditions":[2.4414879E1,8.55E1,2.4858246E1,-3.0737162E-2,1.3459925E-1,6.999962E-1,2.4417674E-2],"split_indices":[3,1,3,0,0,0,0],"split_type":[0,0,0,0,0,0,0],"sum_hessian":[8E2,7.57E2,4.3E1,6.57E2,1E2,8E0,3.5E1],"tree_param":{"num_deleted":"0","num_feature":"4","num_nodes":"7","size_leaf_vector":"0"}},{"base_weights":[9.9147685E-2,-2.438002E-3,4.1130013E0,-9.728042E-1,2.9701972E-1],"categories":[],"categories_nodes":[],"categories_segments":[],"categories_sizes":[],"default_left":[1,1,0,0,0],"id":62,"left_children":[1,3,-1,-1,-1],"loss_changes":[3.3037784E2,2.3535632E2,0E0,0E0,0E0],"parents":[2147483647,0,0,1,1],"right_children":[2,4,-1,-1,-1],"split_conditions":[2.899849E1,1.75E1,4.1130015E-1,-9.728042E-2,2.9701972E-2],"split_indices":[3,1,0,0,0],"split_type":[0,0,0,0,0],"sum_hessian":[8E2,7.9E2,1E1,1.81E2,6.09E2],"tree_param":{"num_deleted":"0","num_feature":"4","num_nodes":"5","size_leaf_vector":"0"}},{"base_weights":[9.347653E-2,-1.8607098E-1,1.4925628E0,-9.4563905E-3,-4.033117E0,5.427136E0,8.583506E-1],"categories":[],"categories_nodes":[],"categories_segments":[],"categories_sizes":[],"default_left":[1,1,1,0,0,0,0],"id":63,"left_children":[1,3,5,-1,-1,-1,-1],"loss_changes":[3.195772E2,4.643586E2,2.9278436E2,0E0,0E0,0E0,0E0],"parents":[2147483647,0,0,1,1,2,2],"right_children":[2,4,6,-1,-1,-1,-1],"split_conditions":[1.6753288E1,1.5781635E1,1.725027E1,-9.4563904E-4,-4.033117E-1,5.427136E-1,8.583506E-2],"split_indices":[3,3,3,0,0,0,0],"split_type":[0,0,0,0,0,0,0],"sum_hessian":[8E2,6.74E2,1.26E2,6.54E2,2E1,7E0,1.19E2],"tree_param":{"num_deleted":"0","num_feature":"4","num_nodes":"7","size_leaf_vector":"0"}},{"base_weights":[8.689778E-2,8.129939E-1,-4.2664805E-1,-5.170609E-1,4.18458E0,1.1762169E-1,-1.6124439E0],"categories":[],"categories_nodes":[],"categories_segments":[],"categories_sizes":[],"default_left":[1,1,1,0,0,0,0],"id":64,"left_children":[1,3,5,-1,-1,-1,-1],"loss_changes":[3.0550436E2,1.5418464E3,3.123305E2,0E0,0E0,0E0,0E0],"parents":[2147483647,0,0,1,1,2,2],"right_children":[2,4,6,-1,-1,-1,-1],"split_conditions":[1.25E1,6.35E1,6.25E1,-5.1706087E-2,4.1845798E-1,1.1762169E-2,-1.6124439E-1],"split_indices":[0,1,1,0,0,0,0],"split_type":[0,0,0,0,0,0,0],"sum_hessian":[8E2,3.29E2,4.71E2,2.42E2,8.7E1,3.29E2,1.42E2],"tree_param":{"num_deleted":"0","num_feature":"4","num_nodes":"7","size_leaf_vector":"0"}},{"base_weights":[8.0890246E-2,-1.4180319E-2,3.843268E0,2.7712756E-1,-8.4049135E-1],"categories":[],"categories_nodes":[],"categories_segments":[],"categories_sizes":[],"default_left":[1,1,0,0,0],"id":65,"left_children":[1,3,-1,-1,-1],"loss_changes":[2.90275E2,1.9489798E2,0E0,0E0,0E0],"parents":[2147483647,0,0,1,1],"right_children":[2,4,-1,-1,-1],"split_conditions":[2.899849E1,5.45E1,3.843268E-1,2.7712757E-2,-8.4049135E-2],"split_indices":[3,0,0,0,0],"split_type":[0,0,0,0,0],"sum_hessian":[8E2,7.9E2,1E1,5.89E2,2.01E2],"tree_param":{"num_deleted":"0","num_feature":"4","num_nodes":"5","size_leaf_vector":"0"}},{"base_weights":[7.685074E-2,-1.3466279E-2,3.6511064E0,-1.147852E0,1.9373499E-1],"categories":[],"categories_nodes":[],"categories_segments":[],"categories_sizes":[],"default_left":[1,1,0,0,0],"id":66,"left_children":[1,3,-1,-1,-1],"loss_changes":[2.6197272E2,1.9026073E2,0E0,0E0,0E0],"parents":[2147483647,0,0,1,1],"right_children":[2,4,-1,-1,-1],"split_conditions":[2.899849E1,1.05E1,3.6511064E-1,-1.14785194E-1,1.9373499E-2],"split_indices":[3,1,0,0,0],"split_type":[0,0,0,0,0],"sum_hessian":[8E2,7.9E2,1E1,1.15E2,6.75E2],"tree_param":{"num_deleted":"0","num_feature":"4","num_nodes":"5","size_leaf_vector":"0"}},{"base_weights":[7.249531E-2,-1.4457463E-1,1.4669926E0,-3.6019288E-2,-4.8306503E0,4.10519E0,4.2459437E-1],"categories":[],"categories_nodes":[],"categories_segments":[],"categories_sizes":[],"default_left":[1,1,1,0,0,0,0],"id":67,"left_children":[1,3,5,-1,-1,-1,-1],"loss_changes":[2.473107E2,3.59436E2,2.8507532E2,0E0,0E0,0E0,0E0],"parents":[2147483647,0,0,1,1,2,2],"right_children":[2,4,6,-1,-1,-1,-1],"split_conditions":[1.867255E1,1.823227E1,4.7645706E1,-3.601929E-3,-4.8306504E-1,4.1051897E-1,4.245944E-2],"split_indices":[3,3,2,0,0,0,0],"split_type":[0,0,0,0,0,0,0],"sum_hessian":[8E2,7E2,1E2,6.94E2,6E0,2E1,8E1],"tree_param":{"num_deleted":"0","num_feature":"4","num_nodes":"7","size_leaf_vector":"0"}},{"base_weights":[6.48299E-2,-2.0542761E-2,3.4473214E0,-2.0699818E-1,1.1433083E0],"categories":[],"categories_nodes":[],"categories_segments":[],"categories_sizes":[],"default_left":[1,1,0,0,0],"id":68,"left_children":[1,3,-1,-1,-1],"loss_changes":[2.3461374E2,1.7597171E2,0E0,0E0,0E0],"parents":[2147483647,0,0,1,1],"right_children":[2,4,-1,-1,-1],"split_conditions":[2.899849E1,8.55E1,3.4473214E-1,-2.069982E-2,1.1433083E-1],"split_indices":[3,1,0,0,0],"split_type":[0,0,0,0,0],"sum_hessian":[8E2,7.9E2,1E1,6.88E2,1.02E2],"tree_param":{"num_deleted":"0","num_feature":"4","num_nodes":"5","size_leaf_vector":"0"}},{"base_weights":[6.3758664E-2,-1.5405318E-1,1.3047019E0,7.111508E-3,-3.5105157E0,3.5563785E-1,3.4731224E0],"categories":[],"categories_nodes":[],"categories_segments":[],"categories_sizes":[],"default_left":[1,1,1,0,0,0,0],"id":69,"left_children":[1,3,5,-1,-1,-1,-1],"loss_changes":[2.2094658E2,3.77828E2,2.3872058E2,0E0,0E0,0E0,0E0],"parents":[2147483647,0,0,1,1,2,2],"right_children":[2,4,6,-1,-1,-1,-1],"split_conditions":[4.3772385E1,4.077146E1,6E1,7.111508E-4,-3.5105157E-1,3.5563786E-2,3.4731224E-1],"split_indices":[2,2,1,0,0,0,0],"split_type":[0,0,0,0,0,0,0],"sum_hessian":[8E2,6.88E2,1.12E2,6.66E2,2.2E1,8.6E1,2.6E1],"tree_param":{"num_deleted":"0","num_feature":"4","num_nodes":"7","size_leaf_vector":"0"}},{"base_weights":[5.7784624E-2,-2.4535431E-1,9.081158E-1,-2.5923084E-3,-3.7678509E0,-2.7844676E-1,2.4946222E0],"categories":[],"categories_nodes":[],"categories_segments":[],"categories_sizes":[],"default_left":[1,1,1,0,0,0,0],"id":70,"left_children":[1,3,5,-1,-1,-1,-1],"loss_changes":[2.1102058E2,5.1725494E2,4.116814E2,0E0,0E0,0E0,0E0],"parents":[2147483647,0,0,1,1,2,2],"right_children":[2,4,6,-1,-1,-1,-1],"split_conditions":[3.273664E1,1.3472376E1,4.45E1,-2.5923084E-4,-3.767851E-1,-2.7844677E-2,2.4946223E-1],"split_indices":[2,3,1,0,0,0,0],"split_type":[0,0,0,0,0,0,0],"sum_hessian":[8E2,5.95E2,2.05E2,5.66E2,2.9E1,1.22E2,8.3E1],"tree_param":{"num_deleted":"0","num_feature":"4","num_nodes":"7","size_leaf_vector":"0"}},{"base_weights":[5.0087385E-2,-4.4877954E-2,2.7183614E0,7.455231E-2,-3.4563475E0,3.5145285E0,-7.5344086E-2],"categories":[],"categories_nodes":[],"categories_segments":[],"categories_sizes":[],"default_left":[1,1,1,0,0,0,0],"id":71,"left_children":[1,3,5,-1,-1,-1,-1],"loss_changes":[2.064687E2,3.252635E2,6.492717E1,0E0,0E0,0E0,0E0],"parents":[2147483647,0,0,1,1,2,2],"right_children":[2,4,6,-1,-1,-1,-1],"split_conditions":[2.7695028E1,2.4858246E1,3.7E1,7.455231E-3,-3.4563476E-1,3.5145286E-1,-7.5344085E-3],"split_indices":[3,3,1,0,0,0,0],"split_type":[0,0,0,0,0,0,0],"sum_hessian":[8E2,7.82E2,1.8E1,7.65E2,1.7E1,1.2E1,6E0],"tree_param":{"num_deleted":"0","num_feature":"4","num_nodes":"7","size_leaf_vector":"0"}},{"base_weights":[4.514956E-2,6.419037E-1,-3.763705E-1,-5.068069E-1,3.560007E0,7.249584E-2,-1.7327514E0],"categories":[],"categories_nodes":[],"categories_segments":[],"categories_sizes":[],"default_left":[1,1,1,0,0,0,0],"id":72,"left_children":[1,3,5,-1,-1,-1,-1],"loss_changes":[2.0616646E2,1.1543895E3,2.9410522E2,0E0,0E0,0E0,0E0],"parents":[2147483647,0,0,1,1,2,2],"right_children":[2,4,6,-1,-1,-1,-1],"split_conditions":[1.25E1,6.35E1,7.15E1,-5.0680693E-2,3.5600072E-1,7.249584E-3,-1.7327514E-1],"split_indices":[0,1,1,0,0,0,0],"split_type":[0,0,0,0,0,0,0],"sum_hessian":[8E2,3.29E2,4.71E2,2.42E2,8.7E1,3.61E2,1.1E2],"tree_param":{"num_deleted":"0","num_feature":"4","num_nodes":"7","size_leaf_vector":"0"}},{"base_weights":[4.2354457E-2,-8.632827E-2,1.8966206E0,-1.1219189E0,1.02271385E-1,6.5054183E0,-3.6836973E-1],"categories":[],"categories_nodes":[],"categories_segments":[],"categories_sizes":[],"default_left":[1,1,1,0,0,0,0],"id":73,"left_children":[1,3,5,-1,-1,-1,-1],"loss_changes":[1.9491307E2,1.5095174E2,5.7722473E2,0E0,0E0,0E0,0E0],"parents":[2147483647,0,0,1,1,2,2],"right_children":[2,4,6,-1,-1,-1,-1],"split_conditions":[2.4414879E1,1.05E1,2.4858246E1,-1.1219189E-1,1.0227139E-2,6.5054184E-1,-3.6836974E-2],"split_indices":[3,1,3,0,0,0,0],"split_type":[0,0,0,0,0,0,0],"sum_hessian":[8E2,7.57E2,4.3E1,1.09E2,6.48E2,8E0,3.5E1],"tree_param":{"num_deleted":"0","num_feature":"4","num_nodes":"7","size_leaf_vector":"0"}},{"base_weights":[4.443672E-2,-3.2444976E-2,3.097486E0,6.616924E-2,-2.2067754E0,3.4504862E0,2.531891E-1],"categories":[],"categories_nodes":[],"categories_segments":[],"categories_sizes":[],"default_left":[1,1,1,0,0,0,0],"id":74,"left_children":[1,3,5,-1,-1,-1,-1],"loss_changes":[1.911311E2,1.7299611E2,1.1344498E1,0E0,0E0,0E0,0E0],"parents":[2147483647,0,0,1,1,2,2],"right_children":[2,4,6,-1,-1,-1,-1],"split_conditions":[2.899849E1,2.4858246E1,4.7E1,6.616924E-3,-2.2067754E-1,3.4504864E-1,2.531891E-2],"split_indices":[3,3,1,0,0,0,0],"split_type":[0,0,0,0,0,0,0],"sum_hessian":[8E2,7.9E2,1E1,7.65E2,2.5E1,7E0,3E0],"tree_param":{"num_deleted":"0","num_feature":"4","num_nodes":"7","size_leaf_vector":"0"}},{"base_weights":[4.1922823E-2,-8.5555494E-2,1.8788406E0,-2.569443E-1,9.614617E-1,6.213348E0,-2.7248245E-1],"categories":[],"categories_nodes":[],"categories_segments":[],"categories_sizes":[],"default_left":[1,1,1,0,0,0,0],"id":75,"left_children":[1,3,5,-1,-1,-1,-1],"loss_changes":[1.9128287E2,1.401063E2,5.1115137E2,0E0,0E0,0E0,0E0],"parents":[2147483647,0,0,1,1,2,2],"right_children":[2,4,6,-1,-1,-1,-1],"split_conditions":[2.4414879E1,8.55E1,2.4858246E1,-2.569443E-2,9.6146174E-2,6.213348E-1,-2.7248247E-2],"split_indices":[3,1,3,0,0,0,0],"split_type":[0,0,0,0,0,0,0],"sum_hessian":[8E2,7.57E2,4.3E1,6.57E2,1E2,8E0,3.5E1],"tree_param":{"num_deleted":"0","num_feature":"4","num_nodes":"7","size_leaf_vector":"0"}},{"base_weights":[4.593465E-2,-4.452184E-2,2.5881557E0,6.260028E-2,-3.1028337E0,3.3515043E0,-7.904577E-2],"categories":[],"categories_nodes":[],"categories_segments":[],"categories_sizes":[],"default_left":[1,1,1,0,0,0,0],"id":76,"left_children":[1,3,5,-1,-1,-1,-1],"loss_changes":[1.8742023E2,2.6141177E2,5.965732E1,0E0,0E0,0E0,0E0],"parents":[2147483647,0,0,1,1,2,2],"right_children":[2,4,6,-1,-1,-1,-1],"split_conditions":[2.7695028E1,2.4858246E1,3.7E1,6.2600276E-3,-3.102834E-1,3.3515045E-1,-7.904577E-3],"split_indices":[3,3,1,0,0,0,0],"split_type":[0,0,0,0,0,0,0],"sum_hessian":[8E2,7.82E2,1.8E1,7.65E2,1.7E1,1.2E1,6E0],"tree_param":{"num_deleted":"0","num_feature":"4","num_nodes":"7","size_leaf_vector":"0"}},{"base_weights":[4.1627727E-2,-8.734107E-2,1.7606964E0,1.1610749E-1,-8.994271E-1,5.0167036E0,-2.2239515E-1],"categories":[],"categories_nodes":[],"categories_segments":[],"categories_sizes":[],"default_left":[1,1,1,0,0,0,0],"id":77,"left_children":[1,3,5,-1,-1,-1,-1],"loss_changes":[1.8111984E2,1.2710543E2,3.7920367E2,0E0,0E0,0E0,0E0],"parents":[2147483647,0,0,1,1,2,2],"right_children":[2,4,6,-1,-1,-1,-1],"split_conditions":[2.4246891E1,9.1E1,2.4858246E1,1.1610749E-2,-8.9942716E-2,5.0167036E-1,-2.2239516E-2],"split_indices":[3,0,3,0,0,0,0],"split_type":[0,0,0,0,0,0,0],"sum_hessian":[8E2,7.53E2,4.7E1,6.09E2,1.44E2,1.2E1,3.5E1],"tree_param":{"num_deleted":"0","num_feature":"4","num_nodes":"7","size_leaf_vector":"0"}},{"base_weights":[4.241669E-2,-4.360702E-2,2.46051E0,5.6241177E-2,-2.8934693E0,3.180825E0,-6.774187E-2],"categories":[],"categories_nodes":[],"categories_segments":[],"categories_sizes":[],"default_left":[1,1,1,0,0,0,0],"id":78,"left_children":[1,3,5,-1,-1,-1,-1],"loss_changes":[1.6956377E2,2.2699379E2,5.3146606E1,0E0,0E0,0E0,0E0],"parents":[2147483647,0,0,1,1,2,2],"right_children":[2,4,6,-1,-1,-1,-1],"split_conditions":[2.7695028E1,2.4858246E1,3.7E1,5.624118E-3,-2.8934693E-1,3.180825E-1,-6.774187E-3],"split_indices":[3,3,1,0,0,0,0],"split_type":[0,0,0,0,0,0,0],"sum_hessian":[8E2,7.82E2,1.8E1,7.65E2,1.7E1,1.2E1,6E0],"tree_param":{"num_deleted":"0","num_feature":"4","num_nodes":"7","size_leaf_vector":"0"}},{"base_weights":[3.8515598E-2,-8.275956E-2,1.7863059E0,-3.1472653E-2,-3.2833335E0,5.7089505E0,-1.7970878E-1],"categories":[],"categories_nodes":[],"categories_segments":[],"categories_sizes":[],"default_left":[1,1,1,0,0,0,0],"id":79,"left_children":[1,3,5,-1,-1,-1,-1],"loss_changes":[1.7316881E2,1.248678E2,4.1899426E2,0E0,0E0,0E0,0E0],"parents":[2147483647,0,0,1,1,2,2],"right_children":[2,4,6,-1,-1,-1,-1],"split_conditions":[2.4414879E1,2.4311676E1,2.4858246E1,-3.1472654E-3,-3.2833335E-1,5.708951E-1,-1.7970879E-2],"split_indices":[3,3,3,0,0,0,0],"split_type":[0,0,0,0,0,0,0],"sum_hessian":[8E2,7.57E2,4.3E1,7.55E2,2E0,8E0,3.5E1],"tree_param":{"num_deleted":"0","num_feature":"4","num_nodes":"7","size_leaf_vector":"0"}},{"base_weights":[3.73978E-2,-2.8046456E-1,6.490824E-1,-6.3620016E-2,-3.04977E0,-2.7407534E0,1.5612799E0],"categories":[],"categories_nodes":[],"categories_segments":[],"categories_sizes":[],"default_left":[1,1,1,0,0,0,0],"id":80,"left_children":[1,3,5,-1,-1,-1,-1],"loss_changes":[1.5930997E2,3.2233447E2,9.0860675E2,0E0,0E0,0E0,0E0],"parents":[2147483647,0,0,1,1,2,2],"right_children":[2,4,6,-1,-1,-1,-1],"split_conditions":[1.1423804E1,1.0307664E1,1.05E1,-6.362002E-3,-3.0497703E-1,-2.7407536E-1,1.5612799E-1],"split_indices":[3,3,1,0,0,0,0],"split_type":[0,0,0,0,0,0,0],"sum_hessian":[8E2,5.3E2,2.7E2,5.01E2,2.9E1,5.3E1,2.17E2],"tree_param":{"num_deleted":"0","num_feature":"4","num_nodes":"7","size_leaf_vector":"0"}},{"base_weights":[2.8358208E-2,-4.0213775E-2,2.7570584E0,4.40927E-2,-1.8955103E0,3.06751E0,2.3026921E-1],"categories":[],"categories_nodes":[],"categories_segments":[],"categories_sizes":[],"default_left":[1,1,1,0,0,0,0],"id":81,"left_children":[1,3,5,-1,-1,-1,-1],"loss_changes":[1.5266974E2,1.2596658E2,8.625381E0,0E0,0E0,0E0,0E0],"parents":[2147483647,0,0,1,1,2,2],"right_children":[2,4,6,-1,-1,-1,-1],"split_conditions":[2.899849E1,2.4858246E1,4.7E1,4.40927E-3,-1.8955104E-1,3.0675098E-1,2.302692E-2],"split_indices":[3,3,1,0,0,0,0],"split_type":[0,0,0,0,0,0,0],"sum_hessian":[8E2,7.9E2,1E1,7.65E2,2.5E1,7E0,3E0],"tree_param":{"num_deleted":"0","num_feature":"4","num_nodes":"7","size_leaf_vector":"0"}},{"base_weights":[2.7307948E-2,-8.787698E-2,1.689077E0,-3.7604492E-2,-3.2195175E0,5.455571E0,-1.92871E-1],"categories":[],"categories_nodes":[],"categories_segments":[],"categories_sizes":[],"default_left":[1,1,1,0,0,0,0],"id":82,"left_children":[1,3,5,-1,-1,-1,-1],"loss_changes":[1.5652702E2,1.19542244E2,3.8620453E2,0E0,0E0,0E0,0E0],"parents":[2147483647,0,0,1,1,2,2],"right_children":[2,4,6,-1,-1,-1,-1],"split_conditions":[2.4414879E1,2.4311676E1,2.4858246E1,-3.7604494E-3,-3.2195175E-1,5.4555714E-1,-1.92871E-2],"split_indices":[3,3,3,0,0,0,0],"split_type":[0,0,0,0,0,0,0],"sum_hessian":[8E2,7.57E2,4.3E1,7.55E2,2E0,8E0,3.5E1],"tree_param":{"num_deleted":"0","num_feature":"4","num_nodes":"7","size_leaf_vector":"0"}},{"base_weights":[2.7053414E-2,-6.526551E-2,2.0300395E0,3.8603112E-2,-4.2676616E0,2.8732462E0,-2.4983811E0],"categories":[],"categories_nodes":[],"categories_segments":[],"categories_sizes":[],"default_left":[1,1,1,0,0,0,0],"id":83,"left_children":[1,3,5,-1,-1,-1,-1],"loss_changes":[1.5110484E2,3.4386115E2,2.0924681E2,0E0,0E0,0E0,0E0],"parents":[2147483647,0,0,1,1,2,2],"right_children":[2,4,6,-1,-1,-1,-1],"split_conditions":[2.623077E1,2.4858246E1,8.95E1,3.8603113E-3,-4.2676616E-1,2.8732464E-1,-2.4983811E-1],"split_indices":[3,3,1,0,0,0,0],"split_type":[0,0,0,0,0,0,0],"sum_hessian":[8E2,7.74E2,2.6E1,7.65E2,9E0,2.5E1,1E0],"tree_param":{"num_deleted":"0","num_feature":"4","num_nodes":"7","size_leaf_vector":"0"}},{"base_weights":[1.9589754E-2,3.6371812E-1,-4.9458325E-1,-5.750891E-1,2.360164E0,5.2449274E-1,-1.9978845E0],"categories":[],"categories_nodes":[],"categories_segments":[],"categories_sizes":[],"default_left":[1,1,1,0,0,0,0],"id":84,"left_children":[1,3,5,-1,-1,-1,-1],"loss_changes":[1.4512154E2,9.3384344E2,5.1449963E2,0E0,0E0,0E0,0E0],"parents":[2147483647,0,0,1,1,2,2],"right_children":[2,4,6,-1,-1,-1,-1],"split_conditions":[2.95E1,5.75E1,5.65E1,-5.7508912E-2,2.360164E-1,5.2449275E-2,-1.9978845E-1],"split_indices":[0,1,1,0,0,0,0],"split_type":[0,0,0,0,0,0,0],"sum_hessian":[8E2,4.81E2,3.19E2,3.32E2,1.49E2,1.94E2,1.25E2],"tree_param":{"num_deleted":"0","num_feature":"4","num_nodes":"7","size_leaf_vector":"0"}},{"base_weights":[1.8015737E-2,-8.820522E-2,1.5518141E0,-3.8915552E-2,-3.1569169E0,5.2043324E0,-2.5404078E-1],"categories":[],"categories_nodes":[],"categories_segments":[],"categories_sizes":[],"default_left":[1,1,1,0,0,0,0],"id":85,"left_children":[1,3,5,-1,-1,-1,-1],"loss_changes":[1.3333522E2,1.14784645E2,3.6280478E2,0E0,0E0,0E0,0E0],"parents":[2147483647,0,0,1,1,2,2],"right_children":[2,4,6,-1,-1,-1,-1],"split_conditions":[2.4414879E1,2.4311676E1,2.4858246E1,-3.8915554E-3,-3.1569168E-1,5.2043325E-1,-2.5404079E-2],"split_indices":[3,3,3,0,0,0,0],"split_type":[0,0,0,0,0,0,0],"sum_hessian":[8E2,7.57E2,4.3E1,7.55E2,2E0,8E0,3.5E1],"tree_param":{"num_deleted":"0","num_feature":"4","num_nodes":"7","size_leaf_vector":"0"}},{"base_weights":[1.8380076E-2,-4.4498436E-2,2.5243306E0,3.2813534E-2,-1.7436925E0,2.8649764E0,1.3707791E-1],"categories":[],"categories_nodes":[],"categories_segments":[],"categories_sizes":[],"default_left":[1,1,1,0,0,0,0],"id":86,"left_children":[1,3,5,-1,-1,-1,-1],"loss_changes":[1.2875536E2,1.056666E2,1.2336884E1,0E0,0E0,0E0,0E0],"parents":[2147483647,0,0,1,1,2,2],"right_children":[2,4,6,-1,-1,-1,-1],"split_conditions":[2.899849E1,2.4858246E1,4.7E1,3.2813535E-3,-1.7436926E-1,2.8649765E-1,1.3707791E-2],"split_indices":[3,3,1,0,0,0,0],"split_type":[0,0,0,0,0,0,0],"sum_hessian":[8E2,7.9E2,1E1,7.65E2,2.5E1,7E0,3E0],"tree_param":{"num_deleted":"0","num_feature":"4","num_nodes":"7","size_leaf_vector":"0"}},{"base_weights":[1.813637E-2,-9.17821E-2,1.4863193E0,-2.4222876E-1,8.2334477E-1,4.2250094E0,-1.8288904E-1],"categories":[],"categories_nodes":[],"categories_segments":[],"categories_sizes":[],"default_left":[1,1,1,0,0,0,0],"id":87,"left_children":[1,3,5,-1,-1,-1,-1],"loss_changes":[1.3208232E2,1.0704253E2,2.6829944E2,0E0,0E0,0E0,0E0],"parents":[2147483647,0,0,1,1,2,2],"right_children":[2,4,6,-1,-1,-1,-1],"split_conditions":[2.4246891E1,8.55E1,2.4858246E1,-2.4222877E-2,8.233448E-2,4.2250094E-1,-1.8288905E-2],"split_indices":[3,1,3,0,0,0,0],"split_type":[0,0,0,0,0,0,0],"sum_hessian":[8E2,7.53E2,4.7E1,6.53E2,1E2,1.2E1,3.5E1],"tree_param":{"num_deleted":"0","num_feature":"4","num_nodes":"7","size_leaf_vector":"0"}},{"base_weights":[2.2030562E-2,-7.170192E-2,1.7530679E0,3.281896E-2,-6.247599E0,2.460467E0,-2.4773004E0],"categories":[],"categories_nodes":[],"categories_segments":[],"categories_sizes":[],"default_left":[1,1,1,0,0,0,0],"id":88,"left_children":[1,3,5,-1,-1,-1,-1],"loss_changes":[1.3268307E2,5.0425735E2,1.8664067E2,0E0,0E0,0E0,0E0],"parents":[2147483647,0,0,1,1,2,2],"right_children":[2,4,6,-1,-1,-1,-1],"split_conditions":[2.5094635E1,2.4858246E1,8.95E1,3.2818958E-3,-6.247599E-1,2.460467E-1,-2.4773005E-1],"split_indices":[3,3,1,0,0,0,0],"split_type":[0,0,0,0,0,0,0],"sum_hessian":[8E2,7.68E2,3.2E1,7.65E2,3E0,3.1E1,1E0],"tree_param":{"num_deleted":"0","num_feature":"4","num_nodes":"7","size_leaf_vector":"0"}},{"base_weights":[1.2134203E-2,-6.374158E-1,2.4276547E-1,3.8231727E-1,-2.1525214E0,-3.221361E-1,1.3689758E0],"categories":[],"categories_nodes":[],"categories_segments":[],"categories_sizes":[],"default_left":[1,1,1,0,0,0,0],"id":89,"left_children":[1,3,5,-1,-1,-1,-1],"loss_changes":[1.2289073E2,3.4040512E2,3.8930972E2,0E0,0E0,0E0,0E0],"parents":[2147483647,0,0,1,1,2,2],"right_children":[2,4,6,-1,-1,-1,-1],"split_conditions":[1.9723103E0,5.75E1,5.75E1,3.8231727E-2,-2.1525215E-1,-3.221361E-2,1.3689758E-1],"split_indices":[3,1,1,0,0,0,0],"split_type":[0,0,0,0,0,0,0],"sum_hessian":[8E2,2.05E2,5.95E2,1.27E2,7.8E1,4.01E2,1.94E2],"tree_param":{"num_deleted":"0","num_feature":"4","num_nodes":"7","size_leaf_vector":"0"}},{"base_weights":[1.0027626E-2,-5.8927283E-2,1.9568852E0,2.7668685E-2,-2.5227275E0,2.7204478E0,-3.1606674E-1],"categories":[],"categories_nodes":[],"categories_segments":[],"categories_sizes":[],"default_left":[1,1,1,0,0,0,0],"id":90,"left_children":[1,3,5,-1,-1,-1,-1],"loss_changes":[1.098919E2,1.6967528E2,5.719359E1,0E0,0E0,0E0,0E0],"parents":[2147483647,0,0,1,1,2,2],"right_children":[2,4,6,-1,-1,-1,-1],"split_conditions":[2.7695028E1,2.4858246E1,3.7E1,2.7668686E-3,-2.5227275E-1,2.7204478E-1,-3.1606674E-2],"split_indices":[3,3,1,0,0,0,0],"split_type":[0,0,0,0,0,0,0],"sum_hessian":[8E2,7.82E2,1.8E1,7.65E2,1.7E1,1.2E1,6E0],"tree_param":{"num_deleted":"0","num_feature":"4","num_nodes":"7","size_leaf_vector":"0"}},{"base_weights":[8.912922E-3,-7.604695E-2,1.5805713E0,2.4937438E-2,-6.0377727E0,2.274907E0,-2.4442909E0],"categories":[],"categories_nodes":[],"categories_segments":[],"categories_sizes":[],"default_left":[1,1,1,0,0,0,0],"id":91,"left_children":[1,3,5,-1,-1,-1,-1],"loss_changes":[1.0935958E2,4.6989377E2,1.7297879E2,0E0,0E0,0E0,0E0],"parents":[2147483647,0,0,1,1,2,2],"right_children":[2,4,6,-1,-1,-1,-1],"split_conditions":[2.5094635E1,2.4858246E1,8.95E1,2.4937438E-3,-6.037773E-1,2.2749071E-1,-2.444291E-1],"split_indices":[3,3,1,0,0,0,0],"split_type":[0,0,0,0,0,0,0],"sum_hessian":[8E2,7.68E2,3.2E1,7.65E2,3E0,3.1E1,1E0],"tree_param":{"num_deleted":"0","num_feature":"4","num_nodes":"7","size_leaf_vector":"0"}},{"base_weights":[3.8908966E-4,3.4091341E-1,-3.6960524E-1,-5.3953123E-1,2.3063283E0,2.8472316E-1,-1.7465135E0],"categories":[],"categories_nodes":[],"categories_segments":[],"categories_sizes":[],"default_left":[1,1,1,0,0,0,0],"id":92,"left_children":[1,3,5,-1,-1,-1,-1],"loss_changes":[1.0331361E2,7.513408E2,3.5904614E2,0E0,0E0,0E0,0E0],"parents":[2147483647,0,0,1,1,2,2],"right_children":[2,4,6,-1,-1,-1,-1],"split_conditions":[2.15E1,5.75E1,6.35E1,-5.3953122E-2,2.3063283E-1,2.8472317E-2,-1.7465135E-1],"split_indices":[0,1,1,0,0,0,0],"split_type":[0,0,0,0,0,0,0],"sum_hessian":[8E2,4.17E2,3.83E2,2.93E2,1.24E2,2.65E2,1.18E2],"tree_param":{"num_deleted":"0","num_feature":"4","num_nodes":"7","size_leaf_vector":"0"}},{"base_weights":[7.2663504E-4,-8.8319935E-2,1.2892447E0,-3.894568E-2,-3.1623287E0,4.767881E0,-3.8870865E-1],"categories":[],"categories_nodes":[],"categories_segments":[],"categories_sizes":[],"default_left":[1,1,1,0,0,0,0],"id":93,"left_children":[1,3,5,-1,-1,-1,-1],"loss_changes":[9.407652E1,1.1518128E2,3.278936E2,0E0,0E0,0E0,0E0],"parents":[2147483647,0,0,1,1,2,2],"right_children":[2,4,6,-1,-1,-1,-1],"split_conditions":[2.4414879E1,2.4311676E1,2.4858246E1,-3.894568E-3,-3.162329E-1,4.767881E-1,-3.8870867E-2],"split_indices":[3,3,3,0,0,0,0],"split_type":[0,0,0,0,0,0,0],"sum_hessian":[8E2,7.57E2,4.3E1,7.55E2,2E0,8E0,3.5E1],"tree_param":{"num_deleted":"0","num_feature":"4","num_nodes":"7","size_leaf_vector":"0"}},{"base_weights":[2.108221E-3,-5.1271208E-2,2.1362312E0,2.3018112E-2,-1.6816001E0,2.5168798E0,-4.794781E-3],"categories":[],"categories_nodes":[],"categories_segments":[],"categories_sizes":[],"default_left":[1,1,1,0,0,0,0],"id":94,"left_children":[1,3,5,-1,-1,-1,-1],"loss_changes":[9.3369064E1,9.727989E1,1.642025E1,0E0,0E0,0E0,0E0],"parents":[2147483647,0,0,1,1,2,2],"right_children":[2,4,6,-1,-1,-1,-1],"split_conditions":[2.899849E1,2.4858246E1,4.7E1,2.3018112E-3,-1.6816E-1,2.5168797E-1,-4.7947813E-4],"split_indices":[3,3,1,0,0,0,0],"split_type":[0,0,0,0,0,0,0],"sum_hessian":[8E2,7.9E2,1E1,7.65E2,2.5E1,7E0,3E0],"tree_param":{"num_deleted":"0","num_feature":"4","num_nodes":"7","size_leaf_vector":"0"}},{"base_weights":[2.9511405E-3,-7.688764E-2,1.4811668E0,2.0746034E-2,-5.838212E0,2.1676922E0,-2.4242158E0],"categories":[],"categories_nodes":[],"categories_segments":[],"categories_sizes":[],"default_left":[1,1,1,0,0,0,0],"id":95,"left_children":[1,3,5,-1,-1,-1,-1],"loss_changes":[9.673418E1,4.3883563E2,1.6515761E2,0E0,0E0,0E0,0E0],"parents":[2147483647,0,0,1,1,2,2],"right_children":[2,4,6,-1,-1,-1,-1],"split_conditions":[2.5094635E1,2.4858246E1,8.95E1,2.0746035E-3,-5.8382124E-1,2.1676922E-1,-2.4242158E-1],"split_indices":[3,3,1,0,0,0,0],"split_type":[0,0,0,0,0,0,0],"sum_hessian":[8E2,7.68E2,3.2E1,7.65E2,3E0,3.1E1,1E0],"tree_param":{"num_deleted":"0","num_feature":"4","num_nodes":"7","size_leaf_vector":"0"}},{"base_weights":[-4.842797E-3,1.6533358E-1,-6.4569086E-1,-9.135967E-2,1.8310636E0,3.7970144E-1,-1.9600972E0],"categories":[],"categories_nodes":[],"categories_segments":[],"categories_sizes":[],"default_left":[1,1,1,0,0,0,0],"id":96,"left_children":[1,3,5,-1,-1,-1,-1],"loss_changes":[8.9403885E1,2.787458E2,2.3926103E2,0E0,0E0,0E0,0E0],"parents":[2147483647,0,0,1,1,2,2],"right_children":[2,4,6,-1,-1,-1,-1],"split_conditions":[7.05E1,8.55E1,5.65E1,-9.135967E-3,1.8310636E-1,3.7970144E-2,-1.9600973E-1],"split_indices":[0,1,1,0,0,0,0],"split_type":[0,0,0,0,0,0,0],"sum_hessian":[8E2,6.38E2,1.62E2,5.61E2,7.7E1,9.5E1,6.7E1],"tree_param":{"num_deleted":"0","num_feature":"4","num_nodes":"7","size_leaf_vector":"0"}},{"base_weights":[-4.1619334E-3,-7.530476E-1,1.3186286E-1,1.3798505E0,-2.7149851E0,-3.806997E-1,1.2031127E0],"categories":[],"categories_nodes":[],"categories_segments":[],"categories_sizes":[],"default_left":[1,1,1,0,0,0,0],"id":97,"left_children":[1,3,5,-1,-1,-1,-1],"loss_changes":[8.350528E1,5.64724E2,3.8564352E2,0E0,0E0,0E0,0E0],"parents":[2147483647,0,0,1,1,2,2],"right_children":[2,4,6,-1,-1,-1,-1],"split_conditions":[1.05E1,9.635465E0,1.1423804E1,1.3798505E-1,-2.7149853E-1,-3.806997E-2,1.20311275E-1],"split_indices":[1,3,3,0,0,0,0],"split_type":[0,0,0,0,0,0,0],"sum_hessian":[8E2,1.16E2,6.84E2,5.7E1,5.9E1,4.67E2,2.17E2],"tree_param":{"num_deleted":"0","num_feature":"4","num_nodes":"7","size_leaf_vector":"0"}},{"base_weights":[-4.378549E-3,-8.774692E-2,1.1123557E0,-3.740904E-2,-2.963079E0,3.8508415E0,-4.7364977E-1],"categories":[],"categories_nodes":[],"categories_segments":[],"categories_sizes":[],"default_left":[1,1,1,0,0,0,0],"id":98,"left_children":[1,3,5,-1,-1,-1,-1],"loss_changes":[7.6387314E1,1.0932672E2,2.6580496E2,0E0,0E0,0E0,0E0],"parents":[2147483647,0,0,1,1,2,2],"right_children":[2,4,6,-1,-1,-1,-1],"split_conditions":[2.4246891E1,2.3593513E1,2.4858246E1,-3.7409042E-3,-2.963079E-1,3.8508415E-1,-4.7364976E-2],"split_indices":[3,3,3,0,0,0,0],"split_type":[0,0,0,0,0,0,0],"sum_hessian":[8E2,7.53E2,4.7E1,7.5E2,3E0,1.2E1,3.5E1],"tree_param":{"num_deleted":"0","num_feature":"4","num_nodes":"7","size_leaf_vector":"0"}},{"base_weights":[-3.4757168E-3,-7.3901705E-2,1.3019094E0,2.1730572E-2,-5.7182093E0,1.9843951E0,-2.4254546E0],"categories":[],"categories_nodes":[],"categories_segments":[],"categories_sizes":[],"default_left":[1,1,1,0,0,0,0],"id":99,"left_children":[1,3,5,-1,-1,-1,-1],"loss_changes":[7.5427895E1,4.2118988E2,1.5497324E2,0E0,0E0,0E0,0E0],"parents":[2147483647,0,0,1,1,2,2],"right_children":[2,4,6,-1,-1,-1,-1],"split_conditions":[2.5094635E1,2.4858246E1,8.95E1,2.1730573E-3,-5.718209E-1,1.9843952E-1,-2.4254547E-1],"split_indices":[3,3,1,0,0,0,0],"split_type":[0,0,0,0,0,0,0],"sum_hessian":[8E2,7.68E2,3.2E1,7.65E2,3E0,3.1E1,1E0],"tree_param":{"num_deleted":"0","num_feature":"4","num_nodes":"7","size_leaf_vector":"0"}}]},"name":"gbtree"},"learner_model_param":{"base_score":"5E-1","boost_from_average":"1","num_class":"0","num_feature":"4","num_target":"1"},"objective":{"name":"reg:squarederror","reg_loss_param":{"scale_pos_weight":"1"}}},"version":[1,7,1]}